solver_type L2R_L2LOSS_SVC_DUAL
nr_class 2
label 1 -1
nr_feature 45518
bias 1
w
-0.07239723372620503 
-0.01701143259996692 
-0.03069585244910956 
-0.009503357138819439 
-0.0005426347179819403 
-0.01583129712781028 
-0.01748552179593629 
0.004379913245160795 
0.02287278000823014 
-0.006401779991322631 
0.006545436767395689 
0.0136907456586073 
0.02189870994552386 
-0.03324372917516959 
-0.02002997826140619 
-0.005830785606409967 
0.01166933981187557 
-0.02425604886226021 
-0.02662118559369823 
-0.02646778526376481 
-0.02509179776089641 
0.03428573067334221 
-0.004226356685773906 
0.008228703129822174 
0.007459180308707243 
-0.01109636297938853 
0.007844008836048248 
-0.01026724464397522 
-0.02380651965046035 
0.01549658794298564 
0.07043972125517416 
-0.01748101607077401 
0.014210009756352 
-0.002136201724822612 
0.04665182355113308 
-0.01327925018644742 
0.002156054509138 
0.01445355788561975 
0.005930682180860976 
0.001671318932110703 
-0.006531732633824954 
0.02481814130218353 
-0.009374972722485169 
-0.01128471045981215 
-0.002179531168335561 
0.01623780062889058 
-0.01740366252555201 
0.01272247631567822 
-0.003288810503235892 
-0.004115047494780113 
0.03080767509041913 
0.01217770145975447 
0.01932589118489643 
-0.035782912416751 
0.04623932520084614 
0.006973143150084593 
-0.06852373206039182 
-0.009253331712967017 
0.001688305918136268 
-0.1454501634592737 
0.02032401415063571 
0.002606840008622779 
0.008259916986621868 
0.04342932110537791 
-0.02358112412161076 
0.009066254217338225 
-0.07117678189678657 
0.004761311095285639 
-0.06104048757522378 
-0.05227117398367168 
0.02553759335369992 
0.03203178831191217 
0.00495890148121779 
-0.005604768841542043 
-0.0394512024309619 
0.05147904321657416 
-0.009502992640669096 
-0.0812265347816627 
0.02562460279643085 
0.005977927271340022 
0.02043250661127066 
-0.0538913870618156 
-0.00415971140905701 
-0.03543358868446567 
-0.001553936727481241 
0.02472036649784573 
0.02534119323948361 
0.003502211885677521 
-0.01459580139252254 
0.001645728862885254 
0.04359062074393594 
0.01337081653938624 
-0.03840230786014319 
-0.02080274153855087 
0.0007381517825708462 
-0.000430218821022366 
0.01229749035989026 
0.007215483297594137 
-0.03942293681109575 
-0.01087939923091184 
-0.001644405251617946 
0.002392451426090542 
-0.01108546577914929 
-0.05136628540720816 
0.01912907215277097 
-0.005822856532103121 
-0.007676894878953548 
0.02175520731869128 
-0.008941070739036407 
-0.01583188432496553 
-0.008084164421997839 
-0.02759194899030696 
0.07825082871266231 
-0.008019885108776255 
-0.04495898010170693 
-0.02598967633330686 
-0.02327840976471562 
-0.01055009432387046 
-0.003700568100297571 
0.03949381599360297 
-0.04894922638376328 
0.0255074234717132 
-0.001644405251617946 
0.01363956448563126 
-0.00749511400790118 
0.04461184557447332 
0.01729122694465096 
-0.02939728220581151 
-0.02751846896834895 
-0.01157134670733873 
-0.03790679689251664 
-0.012753991825233 
-0.0234524067985 
0.001641424666034631 
0.08079963606380264 
0.01399929664164567 
-0.005545856352718298 
0.03866105373819529 
0.0218373975927086 
-0.01941984129051405 
-0.005739223951332222 
0.04181598364340497 
-0.001387534454421877 
0.004840101692539098 
-0.001644405251617946 
0.01048629869044015 
-0.009843364076174406 
0.0131102037314277 
0.02008920187754788 
0.03367297805718976 
0.04213460422425973 
0.04169115800843051 
-0.004786014360336367 
-0.02284315584383373 
0.04403558251900191 
-0.003514739491786571 
-0.03749141289338231 
0.02792898120939831 
-0.02682127494061171 
0.004424779301594244 
-0.01681017885043743 
-0.01699139982887505 
0.0004354372497560185 
0.015699513594249 
-0.01365251140715498 
-0.01937851077397665 
-0.001204159878194726 
-0.007035621417870573 
0.04313631253178241 
-0.008885708459327141 
-0.004799572115060864 
0.003693323239529586 
-0.01091756836652258 
0.003661396550825439 
0.05178018287918024 
-0.003258767166785973 
0.008611608337945064 
-0.01813874853807564 
0.01064895095226949 
0.0104016980104845 
-0.01447655163654319 
-0.005532728936016777 
0.007230013562837337 
-0.009580506472381138 
0.02652060411372443 
0.02832394796067497 
0.01076645136617218 
0.000523104737622705 
-0.02199863727039209 
0.06581319173244798 
0.03095851717123731 
-0.008925805210826898 
0.01737121693252134 
-0.005863297246427692 
-0.008740132756636491 
-0.02749983669538075 
-0.05278721572346381 
0.005303075955840316 
0.04848110865188553 
-0.009885303118264493 
0.0001020559831192042 
0.00649931794410334 
-0.01038815511645338 
0.008186670228948006 
0.001365913315761378 
-0.001644405251617945 
-0.04278605732889856 
-0.007995778505230167 
-0.005352488041040285 
-0.0343019990016144 
0.04356625930460301 
-0.007950502925943265 
-0.003124934038199199 
-0.04471445784617108 
-0.04278375872378949 
-0.0244918899297221 
0.02438654768391294 
0.0396388980335446 
-0.08098028915524458 
0.01523463881372159 
0.0244868035143849 
0.02324825288893348 
-0.05443255044322207 
-0.0005830339374006589 
0.002637160952140797 
0.02073840423242931 
-0.002091616136349344 
0.005499933780413982 
-0.01574013087997287 
-0.003288810503235893 
0.0102420373179466 
-0.01480707394699114 
-0.01358857033693855 
-0.01804603071800803 
0.02086068016024532 
0.05251947113121638 
0.01051003308979549 
-0.01885899961416984 
-0.02573242931238976 
0.02215931284725382 
0.05655928057519984 
0.01008155724212437 
-0.02718765724881346 
0.001681774922180376 
-0.00581001927197904 
-0.03953761086008039 
0.02113151370085578 
0.05427536556445827 
0.03160577846796549 
0.01758795778514009 
0.01796564379632911 
-0.01305254837404898 
-0.02786177719715507 
-0.03720686179911584 
0.003320770811302786 
-0.05445399473645913 
0.002660226714222667 
0.01273755214529246 
0.04088226699982876 
-0.002605361583515309 
0.00436007573731455 
0.001179245802939649 
0.004686771169277892 
-0.07224607253470015 
-0.05228795691209284 
-0.006887995333819914 
0.0009216585480150806 
0.006063104374420136 
0.00415119850230355 
-0.03199132379315527 
0.02739639550643813 
-0.02521344472102365 
-0.04727260573631851 
0.02162425091723121 
-0.007905219419371792 
0.002732519996835657 
-0.05690906136642111 
0.002834143610612073 
0.03317595011823303 
-0.0430535207812707 
-0.002797391401717397 
0.02572060484769906 
0.06561464372688347 
-0.001415873946210388 
-0.08918887424732588 
0.006758154955338158 
0.008373143749366483 
0.01277022547344286 
0.005405077274295165 
0.01896037637128388 
0.01935308076324455 
0.03259181993269222 
0.02212259865135213 
-0.000412148868181457 
0.08614859691819399 
-0.008685377178147154 
-0.01741664766257103 
-0.008898336010020786 
-0.05370362051633126 
0.006735611461062776 
-0.002481343582113012 
-0.00320086880201068 
-0.0005451252243751069 
-0.008185249483055334 
0.01590645255373169 
0.03898133481051635 
-0.02616669382776638 
0.003615649592479201 
-0.0336080196300309 
-0.03493817830239265 
0.008227609701373749 
0.04642025194601942 
-0.009538122168727516 
0.02300330034468533 
-0.007878528539441185 
-0.03456304619639766 
0.0009580636575361502 
0.01297589164209012 
0.0006689443152049262 
0.01371855155769969 
0.05074591173869988 
0.007995824213332479 
-0.00453087865725456 
0.04356236130920708 
-0.01917215955625987 
-0.01633171211791301 
-0.004847286027030289 
0.02315074766377027 
-0.02835463208849118 
-0.01497709291737217 
-0.01961310649799817 
0.007097520768191653 
-0.0300320450673127 
-0.01656725030873401 
0.03243595623913468 
-0.07264439712223299 
0.03442964568995485 
-0.008808180271716867 
0.01210409873467722 
0.003923993551267473 
-0.05090935563350814 
-0.01193405223360083 
0.002973711823142167 
-0.009127534057376532 
0.01287599253623372 
-0.002402027107890623 
0.01345061812933283 
0.009612564201536375 
0.01287025555777364 
0.01816864202280013 
0.02687552415634387 
-0.01252296700551601 
0.00731184615202372 
0.001017700944471334 
-0.01320440952972673 
-0.006938919744172609 
-0.005426462793328697 
-0.01465353678705438 
0.01113707026192241 
0.02658963349308508 
-0.01968722415267251 
-0.05946688153991762 
-0.006083954046323586 
0.01748044535323212 
-0.03465927548424854 
0.01431314149963752 
0.003417605397931602 
-0.003511053281161346 
-0.01266407020542135 
-0.005283912459845854 
0.009881119031821671 
0.02767728163687649 
-0.003378468656639175 
-0.01146383607791971 
0.008288468272700238 
-0.03161916500474033 
-0.02356224441843882 
-0.01813066442872954 
-0.02333066024552268 
0.03093568243896656 
-0.02432888935675285 
-0.03308650456384075 
-0.007862952795412721 
-0.008600319701174053 
0.009672882911460604 
-0.02056804777898336 
-0.03924974477247299 
-0.01263043553694248 
-0.0192728962964758 
-0.01950323155216807 
-0.005450399361423724 
0.02400727111177227 
0.0003630922196546505 
0.007277441756444838 
-0.004030432847326198 
-0.005522793292767404 
0.0150087226417894 
0.004943423089511267 
0.001322686872086075 
-0.004179945144740842 
-0.02863419190005256 
-0.005173976658529474 
0.006203134572774949 
0.01317526427399142 
-0.0179302705302287 
0.00206078584119441 
-0.04565521870186317 
-0.01883549686332723 
-0.03105408073733875 
0.007909357211186775 
-0.04376606341995817 
-0.01745543336523152 
-0.03998229335128651 
-0.02349333450185821 
0.002330485121228892 
-0.04705485609867614 
0.003475696313163756 
0.01696191555551051 
0.002407184783846366 
-0.006384224999104519 
0.01946430631205433 
0.001436965260237421 
-0.003511053281161345 
0.001846852961659832 
-0.01826431233897126 
0.04034511759983578 
-0.001629495947817894 
0.005050593789678257 
-0.02846997137750799 
0.04472756804509456 
-0.03470497175524784 
0.004770728397983864 
-0.004778526689050122 
0.0054407171865188 
-0.003511053281161345 
0.008318231579419079 
-0.0006391738199235875 
-0.0009679737129611255 
0.005245781129235278 
0 
0 
0.03265229665775506 
0.01915969446461465 
0.007765937133295294 
-0.01744053817127654 
0.008090580096542142 
-0.01324845825196124 
-0.02594275541266957 
-0.02749785276047406 
-0.0159074720748168 
0.009591571844862881 
0.01580158530888513 
-0.0001693442727860019 
0.004364608513682141 
-0.00758637340995305 
-0.006091652666820699 
-0.002393949745327024 
0.001918933869557263 
-0.0114150614940116 
0.01402511902976513 
-0.005036827346333885 
-0.04025472522318375 
0.03300612675625166 
0.002368216208847373 
0.0210002695937168 
-0.008553970548771037 
-0.004275387200551665 
-0.006149761577674751 
-0.001569462153497415 
-0.0158542756300404 
0.01754200319350784 
0.021679239696821 
-0.004073171569449395 
-0.01478101996688074 
0.002277389263687925 
0.004785144718836756 
-0.002979233592990168 
-0.01308615997414042 
0.04396006784924417 
0.01161891389189817 
-0.008349405824934382 
-0.05753158546687428 
-0.02331996683678109 
-0.01880191366996899 
0.01397405613180213 
-0.03414369016363989 
-0.01856511509568891 
-0.01868097257262789 
-0.04040119924739948 
0.05195459677434056 
-0.02173147894138656 
0.0006977785900967675 
0.009848691659534593 
-0.0004192835062016332 
0.02334743219090171 
-0.02403843025941537 
0.004057769358909835 
-0.03405428923987935 
-0.01906755786463838 
-0.00688453446780949 
-0.03807943705195225 
0.001954925173297647 
-0.005816434801338785 
-0.007983500387828859 
0.04854472861985849 
-0.02051237416694133 
0.1022001882648182 
-0.1030145106364183 
0.0345789258970472 
0.03718027032392312 
0.001808853863011984 
-0.03172288761439913 
-0.01345021336749069 
-0.01851979196661582 
-0.01179250436817639 
0.01700515435760791 
0.008223471743516928 
-0.01075763508657286 
0.005379592390508879 
0.001409443521343854 
-0.02689819435168125 
0.01239485668445393 
0.01109643717898126 
0.006476007958504127 
-0.008722992455583207 
-0.004147174332744197 
0.008643766013502141 
-0.007006863018717197 
0.003133696847649795 
-0.004602573146458309 
0.02209889129669134 
0.01852873051452805 
0.0005984038584640309 
-0.01890565986466626 
-0.1408715715453862 
-0.02979411633259153 
-0.01254449803131834 
-0.006302161735475559 
-0.00717722157175347 
0.01627832313319465 
-0.006278617503976523 
-0.03095001424965541 
0.004852247726219363 
0.01382204780065084 
0.01459404044471974 
-0.01467406484897709 
-0.00234762870786662 
0.01318995520660841 
0.01244495791027723 
-0.005158876409870846 
0 
-0.000651220317494807 
0.03463341399351043 
-0.003990608515767001 
-0.01651558637618223 
0.002670905392678878 
-0.007150652914695492 
-0.0185348344878935 
-0.0164268351736199 
0.001358643596173587 
-0.01063576838681051 
0.0243453284614871 
-0.02076767288111044 
-0.05312675721660073 
-0.05252327597909712 
0.04157572714863429 
0.03446853992964668 
-0.03590003044175611 
0.01295105542571023 
0.007102833789541161 
-0.002913188327242364 
0.008963317252737146 
-0.09376725874882669 
-0.02927210056976354 
-0.01242034398967345 
5.421010862427522e-20 
0.01261065278335456 
0.00775437619961303 
0.001753011869433871 
-0.006414563985934572 
0.04996930050959734 
-0.006241405658871021 
0.02651564028677041 
0.0147763074653725 
-0.01559311219987393 
0.07170477903149848 
-0.02118399405769714 
-0.003526722389108708 
-0.02981939560396714 
-0.0198214433477742 
-0.01285462672025927 
0.05083012549364131 
-0.00620800037083114 
-0.006257070486436268 
0.0008266822060901649 
0.006154112606700109 
0.006265094064121631 
0.02993037416866281 
-0.04363003421181291 
-0.007604652346182941 
-0.005037932593698087 
-0.03285023247279174 
-0.001799937737695143 
-0.08688138800137174 
0 
0.02380354934659403 
0.008894548919712208 
-0.02241323583604955 
-0.002136745825422805 
-0.002691398945860141 
-0.003777795989288187 
-0.007865670599260046 
0.0009669019932711321 
-0.00505947301054281 
-0.001955280517595984 
-0.005931611771863455 
-0.0005758942039308718 
-0.01125692434917186 
-0.01615899235524749 
0.005017310382099556 
0.004598616000645619 
-0.08629212370940142 
0.005639858720983876 
0.02294140351905167 
-0.003882821303548789 
0.0008650935338767336 
0.006170352775876253 
-0.01343731062004072 
-0.002465036831570166 
-0.03236414153098165 
-0.004827045247138803 
-0.01153694709913206 
-0.02546448501403954 
0.01908315770005076 
-0.04204732618103018 
-0.003750137068975389 
-0.001638011830220331 
-0.009086651657098172 
-0.00132890605159143 
-0.005878131097667387 
-0.00912690983157155 
-0.002983054088043375 
-0.01095592038170461 
0.02033970544853928 
-0.007136491654199222 
0.04714654284349824 
0.02154093322998194 
-0.0007592427143862883 
-0.004409206688060385 
-0.003350732639189276 
0.01033944418543576 
-0.04587257633166897 
-0.004693378437971147 
-0.03380076834764972 
-0.02186766033857959 
-0.008679105452673128 
-0.007405932390971801 
-0.01600013143332862 
0.01412856746281221 
-0.03106115161385994 
0.01226821762333103 
0.01778065834476045 
0.006904933688057918 
-0.007821122070383935 
0.01215516169199598 
-0.001955280517595984 
-0.001955280517595984 
-0.001955280517595984 
-0.03898274974219702 
-0.004401376991943089 
-0.0008852377798240071 
0.001325077077668539 
-0.005098896640999204 
-0.005649171790661118 
0.000975964627307167 
0.0191377212651473 
-0.005050466532599112 
0.01872179557844959 
-0.007603566134792267 
-0.01141000644036759 
-0.007598209320041188 
0.05068259566182105 
-0.001955280517595984 
-0.001955280517595984 
-0.01547272563470469 
0.00236421278563744 
-0.001955280517595984 
-0.001955280517595984 
-0.004851298512208456 
0.005754276440027004 
0.01651409879631098 
-0.003867014865537457 
0.006307863429533161 
0.001283443387531849 
-0.0201527911962578 
-0.001955280517595984 
-0.01272315268437267 
0.05355913600594774 
-0.01025240657554658 
-0.007746035066381372 
-0.001955280517595984 
-0.008426982343440637 
-0.000641700203611357 
-0.0039431850000306 
-0.001955280517595984 
0.02117767519846603 
0.007205140044101929 
-0.007650366296627123 
-0.01325586433026272 
-0.001955280517595983 
6.965481445945709e-05 
-0.001138535145890265 
0.02755052145134432 
0.01379987755509788 
-0.01673163424462004 
0.009067904652550468 
0.002572448681473748 
0.01793668140861183 
0.004013531550330971 
0.000599583592367254 
0.00112506414278964 
-0.01482988038415121 
-0.02287509119057708 
-0.0256038899837079 
-0.003270617945729187 
0.007594276827104996 
0.0003992432174507107 
0.007268145401690411 
-0.0233257939086964 
-0.002116961219797156 
-0.001955280517595984 
0.0216333718323637 
-0.0009022007367561182 
-0.009606010306222715 
-0.001955280517595984 
-0.002033880138432659 
0.05062539386217529 
-0.008288228235769289 
-0.002521527547874785 
0.008616672120690703 
-0.0001606298190445399 
0.001972152743873028 
-0.01863762191132688 
0.001972152743873028 
-0.004829174994269323 
0.007970588208153538 
-0.01246387131197719 
-0.02749326244193442 
-0.001867032223986511 
-0.0420993751640111 
0.004438573637753887 
-0.001955280517595984 
-0.04713112031340207 
-1.883817773096579e-05 
-0.008241948544132073 
0.01064402974978741 
0.003429832068342784 
0.02178300872516515 
0.004176783187288751 
-0.0110830552222049 
-0.001375192528012821 
-0.005569018990874594 
-0.0115146168414658 
-0.001955280517595984 
-0.003501075116029642 
-0.0007392996470229474 
0.0399575910353341 
-0.0004757417811645403 
-0.001955280517595984 
-0.004642348867800935 
-0.009984442622177198 
-0.01124583565616615 
-0.001955280517595984 
-0.003209683674216232 
-0.003387464041863513 
0.02324599643757844 
0.007048638899298139 
0.0248238530707478 
-0.06692624182310181 
0.0008038293447057951 
0.02679395939281333 
0.004003679139450673 
0.009113149495485461 
0.01472138069872577 
-0.05459024576964007 
0.0003537205230234876 
-0.005787663213046778 
0.0203748584840297 
0.001860924738674359 
-0.02927461071630479 
-0.01770602776474271 
0.01302819575274501 
0.003987308524401909 
-0.004222868719161285 
-0.001955280517595984 
-0.02501016698193358 
0.00304202861201529 
-0.05710334515227025 
-0.00470114698771156 
0.005760686905779744 
0.02605781216101502 
-0.001027966831085817 
-0.00469501985588601 
-0.007200219502214765 
0.002602922001478587 
-0.007268249812912549 
0.01539419899964312 
-0.01121709439292523 
-0.03769070782282213 
0.005461627435895269 
-0.002139316110563729 
-0.007780562566377552 
-0.0001922115595837109 
-0.0007030576560207617 
-0.008013327190204308 
-0.02754588105642683 
-0.02728115475379328 
0.0010387735389652 
-0.0636075685599319 
0.02336328895434119 
0.009544045954348556 
0.004513291093662825 
-0.001406115312041524 
0.00102472620660337 
0.004575219598112691 
-0.008683088092448025 
-0.04348424077966737 
0.003987074999993599 
0.05145134793574677 
0.01306197791351477 
-0.002046043878767619 
-0.004292935552254833 
-0.001162930056516849 
0.07393543641739285 
-0.01568555740229884 
-0.009909772887878159 
0.004922075259331628 
-0.0007030576560207618 
-0.01749606480013051 
0.0007231176129537033 
-0.01932138581543118 
-0.002397454933731039 
0.01165940684632878 
-0.01356619092271957 
-0.0007617107472687376 
0.001329030159438959 
0.001779621839455068 
0.0480849342279591 
0.01982223210657006 
0.001149937374594327 
-0.00286377725892243 
0.04044011580520294 
0.01840281351432891 
0.01967407968866173 
0.01949742900984979 
-0.0172975475252174 
-0.006693750062145895 
-0.005969492081231165 
-0.0006086694170049458 
0.002082796695790839 
0.04067624381075711 
-0.0007030576560207618 
0.01437396403628687 
0.006970085864060714 
0.003048214012176823 
-0.02180280870151881 
-0.01307336577864055 
-0.0007040386598512652 
0.01097084068741147 
-0.000385646314609174 
0.003462067564244147 
-0.002264881719508436 
-0.0007030576560207618 
0.00778482728297004 
0.001279430481310149 
-0.003306815647991881 
-0.004726279356224408 
0.02020018560419379 
-0.007901202975207772 
0.004197154784956794 
0.02616986979535746 
0.001445457916785143 
0.03009425120674955 
0.0235387575383851 
-0.002422141224603089 
-0.01654507659600564 
-0.01852594104328168 
0.01778280143020226 
-0.0007030576560207618 
-0.007967073646465438 
-0.0009112288436265016 
-0.0007030576560207618 
-0.001406115312041524 
0.0003369399928409422 
0.0125949979652593 
-0.001122341162222392 
-0.0007030576560207619 
0.008478760098515364 
0.002193593599338811 
-0.01129638921448495 
-0.0007030576560207618 
-0.006172968774594871 
0.04047446054625112 
-0.007157366801140078 
-0.02948894463581656 
0.001742244809193018 
-0.0007030576560207618 
-0.008040719736316281 
-0.007069889447196087 
-0.007975258561276538 
-0.03302511378591189 
0.003712528260363211 
-0.0007030576560207618 
0.004696576885356668 
0.007938850201336363 
-0.01362088289740384 
-0.02399972334032656 
-0.00606130628430436 
-0.03510659421396049 
0.0732261508812498 
-0.0001459249425203738 
-0.001806535796477134 
0.03808921777707246 
0.001489467638073641 
0.06479562217128122 
-0.0353274810313002 
-0.01464041702346162 
-0.0008314306973804339 
0.04520687906018677 
-0.02369694418671398 
0.01863584074128758 
-0.02641074019116286 
0.009935146594633189 
-0.0007030576560207618 
-0.02127746404301232 
-0.0001014371311843672 
-0.009147541124593067 
0.01989304659469895 
0.002111600661744417 
0.01556862801657929 
-0.008766962503199064 
-0.01804897817249591 
-0.03163718402589027 
0.0355470280797436 
-0.001899091189177097 
-0.005155473794438724 
0.01126191680975052 
0.008852098734213654 
-0.006944322138153727 
-0.01516355780232805 
-0.01316223924155244 
-0.009978666277563237 
0.000171731292277355 
0.004544272608309518 
-0.05919988251607973 
-0.01530019808801936 
-0.002442621962465067 
-0.02090285584354949 
-0.0002578712445436351 
-0.09039228090253584 
0.02160293168576233 
0.003275961205310038 
-0.005002313595075606 
0.007308156187836963 
-0.0007030576560207618 
-0.002885047942038866 
-0.005518640066384536 
-0.009344154602113462 
0.03493779352266718 
-0.02361710378310918 
-0.004193068734940793 
-0.0007030576560207618 
0.04042927085728705 
-0.005019188066503893 
-0.003262629728087698 
0.02574133097120996 
0.01942562617531305 
-0.0007030576560207618 
-0.0002750624556143098 
0.003548115407774198 
-0.007828522435240853 
0.001224667609451729 
-0.004751517570444295 
0.03309587510666453 
-0.02103954894235946 
-0.01010950305028226 
-0.008924639580800692 
-0.001406115312041524 
-0.03051505656090811 
0.01331376087424969 
0.01509648636381889 
0.0347870210322316 
0.0007030033359931006 
0.003265770503457918 
-0.0004786690532495175 
-0.0106444758743001 
-0.01089648462656682 
0.01392528157760299 
-0.0319584034837705 
0.002174988742696244 
0.005024567964288528 
-0.02723292729727725 
-0.002765824959433118 
-0.03304362837361717 
0.03978334816120459 
0.008960651892634583 
-0.02087127673916435 
0.01194575142312167 
0.008613734897627795 
0.0005360066339368836 
0.006058730656836147 
0.02229050363970442 
0.01170814369489381 
0.01440319353250851 
-0.03700297370699598 
-0.0007030576560207617 
-0.008711780356108617 
0.003185136804880003 
0.01127009572855416 
-0.01268388168820412 
0.03332667246327291 
-0.08931640130128807 
0.009353940643769631 
0.02439011802915951 
-0.01855115981018387 
-0.01231821441834465 
0.05064326795157428 
-0.02265217151607705 
-0.001814272789090315 
-0.01165037344884331 
-0.01290865248010971 
-0.01399213240938823 
0.04270332663918339 
-0.02098411512062786 
0.01930966829939134 
0.002731265788968257 
-0.05612701684663588 
0.0006558946186146159 
-0.008593789241691888 
-0.003775227442460795 
-0.01852959770644242 
0.03609124817972697 
-0.008517662090514891 
-0.01017612390045057 
-0.0006484956690745686 
0.02225402794986216 
0.002537159760218916 
0.00523839016843439 
0.02860284559929028 
-0.005105254809825804 
-0.05261673720034978 
-0.007787405709696479 
-0.01757527125981383 
0.0145912779186802 
0.006637116823116244 
-0.0009584418873429396 
0.01673004358005984 
0.01155486235579716 
0.01004741999088692 
-0.03936766265778187 
-0.004853676553971426 
-0.004853676553971426 
0.03981154779507753 
-0.01118017944004867 
-0.01698421521917885 
-0.01048535968188712 
-0.03385057927670804 
0.006906220133669204 
-0.00267245872613524 
0.03785552458843742 
-0.009599053337669019 
-0.008519804069118991 
0.03292835849662855 
-0.0001964755579372393 
0.02679952503585246 
0.0006960029789013641 
-0.0201934815171469 
-0.03591989775177106 
-0.004979679403931954 
0.001331381134075273 
-0.0008064873581178874 
-0.003275209881772293 
0.004144947468242543 
-0.005721688832943815 
0.006951900303780741 
0.03637857851525003 
-0.006436834318150443 
0.01411982617499374 
-0.003815051233534222 
-0.02254102940418853 
-0.01487384508702362 
0.05140242128322887 
0.009954930399093679 
-0.0001964755579372393 
-0.02491241531115099 
-0.002764620392343917 
0.04583429837707158 
0.0004270334558715809 
0.03048804948049128 
0.01136154118990692 
-0.02215736849692657 
0.0004056223305459303 
-0.002245372420334796 
-0.0001964755579372393 
-0.002088512675659925 
-0.0111637217960085 
0.01131607053664469 
-0.002652965115155678 
0.03380073237714858 
-0.08005771105756902 
-0.0009369662702162316 
0.02209664581718362 
0.05674771609958253 
-0.0001964755579372393 
-0.02777935854973085 
0.01458458378343314 
0.01905419540204527 
-0.002366040319721048 
-0.006609748800154269 
0.05116134968155204 
0.002778029220198245 
0.01579750405532467 
0.07600366078243427 
-0.01589757718658822 
-0.01607261735309225 
0.0356255599166254 
-0.03166827054240449 
-0.03372517684153761 
-0.01517583093956316 
0.0131674677798621 
-0.00367638351836401 
-0.0001964755579372393 
-0.005436258668340465 
-0.01021787273361754 
-0.01060258340930002 
-0.02554046935592001 
0.02270136315105976 
-0.0001964755579372393 
-0.00979002951842097 
-0.001896927783691683 
-0.03888973722837898 
0.002319883667934408 
0.002771629664008053 
-0.002967064014332281 
0.002814163329427232 
0.01534075685530442 
0.003714898445731621 
0.0216524707774377 
0.00935628985607757 
0.04726749688536748 
-0.0133845014651397 
-0.0008605794518452007 
0.01124006156750594 
-0.003627559699047703 
-0.02389611567907688 
-0.003903557143018781 
0.01206516973050323 
0.02793179483382546 
0.008688785437895448 
0.005671341091200047 
-0.005001491318182083 
0.00165679189402878 
-0.01797763841988695 
-0.003101905043920899 
-0.01649728801439692 
-0.009566641082046998 
0.001601764361269124 
0.009134396889596762 
-0.0263316781221127 
0.002174060137449219 
-0.01894855409394016 
-0.006922163824074607 
-0.07079334248136397 
-0.0008299289579177339 
0.007233080006606558 
-0.01051452917095173 
0.01126527726030023 
0.01385199349111563 
0.01217390454498257 
-0.01557534309509711 
-0.001980418225711243 
-0.0114650573783679 
-0.006392356289698026 
-0.02591413781446885 
-0.04576801217520793 
0.01259199962802697 
-0.03722428137462314 
-0.00086595065942438 
-0.02312189571544302 
0.08575128664221543 
0.007550752007601385 
-0.0003571918097252345 
0.00117553004479672 
-0.004083520084614848 
0.005154370609639585 
0.005892531584014222 
0.01637387074477933 
0.01878866964789988 
0.03482931533350395 
0.007721844223067415 
0.01270874871077882 
-0.03109417261668791 
-0.004046686984941446 
-0.03020300488665312 
0.001752431384876214 
-0.01711196523430771 
0.01929394145640671 
-0.002227875010312809 
0.01732947840466904 
0.02134123194238348 
-0.008319110609880349 
0.01194147814953137 
-0.00833943504189409 
-0.03132809329947039 
0.01123076638659028 
-0.005977227005225772 
-0.03868317128480383 
0.005098394609497053 
-0.0008477663949797195 
0.003162696834995242 
-0.008831185006109844 
-0.02660405904292115 
0.01940375817520198 
-0.003878656331005471 
-0.0008477663949797195 
-0.004483847024711355 
0.005799569983130354 
0.001279887769076114 
0.001084399545614097 
-0.002120720316958058 
-0.004189044879662459 
0.002378170408689075 
-0.01423979143753822 
-0.0008477663949797195 
-0.0008477663949797195 
0.001460020475679693 
0.03865572735737088 
-0.005748780394559207 
0.002303327319605183 
-0.006644845018308852 
0.007962433800792213 
-0.01211568355094451 
0.0007571507691502902 
-0.008503806437200683 
-0.000599206550031003 
0.008423674063664391 
0.01096495769251626 
0.006303421909425072 
-0.01385175763973172 
-0.001876745023673207 
-0.07534794283517778 
0.007379211388638784 
-0.01060186868021623 
-0.0008477663949797195 
-0.01184121677246217 
-0.003575614448561026 
-0.02403204556735243 
-0.02841695010853877 
-0.003094740370092174 
0.03668680717543516 
-0.03928896638598738 
-0.04584518743842919 
-0.01303658107959597 
0.002592395761124303 
-0.008436228509035042 
-0.006605959293001289 
-0.0006604729898959858 
0.03952607739468499 
0.006869941240311104 
-0.001216047692767071 
0.006357319611114711 
-0.01145625273141031 
0.0108770972308902 
0.004701152454463111 
-0.01202563025249986 
-0.0147195974619428 
-0.009449602989984094 
0.006918761069691397 
0.05501103569485041 
0.02712649934609585 
0.0020257111621168 
-0.005954984377036869 
-0.06486166706417608 
0.006292490659204914 
-0.01448917246355954 
-0.008119290733489225 
-0.0128831213055626 
-0.01193744671924925 
-0.176431847571847 
0.01586347869649362 
-0.01671004268653564 
-0.0004468053846611133 
0.00932381397269985 
-0.05115975002621902 
0.04162682399894498 
-0.007820780349838994 
0.009343607816986742 
-0.01535905578678412 
-0.01231143516303546 
0.005575427615844832 
-0.005194224975944268 
-0.006199233053315828 
-0.004606311274781751 
0.03989571314429456 
-0.01236604906797584 
0.05174033857035243 
0.03069573036213006 
-0.001825751776763265 
-0.02895176192050919 
-0.01444864005411281 
-0.0008477663949797195 
-0.006470270103807229 
-0.0001102625222675549 
0.001313028284541745 
-0.009375323311861453 
-0.002281442930946986 
0.0001485506128515265 
0.01017077226168014 
-0.02066939446005985 
-0.001767393803623637 
0.01028024191337156 
-0.007310438324183677 
-0.01264189820754776 
0.006854511693633892 
-0.001241590575104191 
0.01339573045673628 
-0.02803266726659986 
-0.04357763105641572 
-0.0208550014436507 
0.004339627401802424 
0.004335760906229722 
-0.001860811520585335 
-0.0008477663949797195 
-0.0008477663949797195 
-0.0071962277906289 
-0.0009729936167784988 
0.0004810701259847674 
-0.02873770685349452 
0.0194216526082104 
-0.0003502882880059841 
0.005443241180018348 
-0.0356771026997763 
-0.001558499186658092 
0.00958781273871499 
-0.0008477663949797195 
-0.02090517124041404 
-0.0008477663949797195 
0.002776339014899717 
0.0001899008289754087 
-0.0008477663949797194 
0.002123381948504774 
0.01900755189889733 
0.005175463253181946 
0.001752150607230107 
0.01442025987379833 
-0.003650745270674001 
-0.01097958081483752 
-0.04556807538169799 
-0.01714815118293296 
0.01958132465428879 
0.024465562036 
0.01660886619053895 
0.0004827885063670578 
-0.001837824691512144 
0.04994886080093082 
-0.01184326084499526 
-0.004118111291560418 
0.002633790051630357 
-0.01851772534280874 
0.0001607983187509477 
-0.004725543475616167 
-0.02446731261522955 
0.01125545479405977 
-0.009255500833928865 
-0.0008477663949797195 
-0.02580231369774481 
-0.007761092833743435 
-0.01650805863186273 
-0.004377294800578923 
-0.0001484814816966851 
-0.0137960488815808 
0.0005409422727149491 
0.005244204352014618 
-0.0008477663949797195 
0.03956164897374335 
0.00610327114221984 
0.01534107269206338 
-0.02952804839617605 
-0.003637190024754637 
-0.02375025561549857 
0.02439496304669649 
-0.008734482388526855 
0.0359796205829321 
0.00526890190860198 
0.02528732082300151 
0.008496046794842118 
0.06899832704838232 
-0.01566861342886144 
-0.05297092407364318 
0.01164442272947932 
0.01313150737421171 
0.01159095824365466 
0.001910470823926318 
-0.004464393237111398 
0 
-0.004097800408351431 
-0.0129150170790816 
-0.07220619702498263 
-0.07521159868696387 
0 
-0.005827639381693063 
0 
-0.01687956614393014 
0 
0.01624645443159458 
0.007176221463302389 
-0.007138255647664317 
-0.001390440323122013 
0.01668481664415173 
-0.02228524652782885 
-0.005311686459369391 
-0.04060006597826962 
0.004013449725506762 
-0.008310913427107587 
0.009977311993282858 
0.01951990628472158 
-0.00926595067643971 
0.008842986564705431 
0.01762498478948758 
-0.003644138178019952 
0.002801884876708685 
0.0008697052365971144 
0.007070033664191766 
0.0006152524776488573 
-0.02870346455448421 
0 
0.007009180962013643 
0.009526986623368896 
-0.02297023189399871 
0.001688825860517102 
-0.03215040714456003 
-0.06209700152089258 
-0.03124108951758169 
0.02969351771986412 
-0.01141925667088873 
-0.01608913078655801 
8.577255937917685e-06 
-0.06747201565506335 
0.002128366269171802 
-0.03577014623576097 
0.02430865497266401 
0.0004456381534438282 
-0.006609790283606572 
0.001194792478513275 
-0.005754884891558066 
0.009718249646685185 
0.004789627709927957 
-0.001781215802897399 
-0.01008101227593077 
0 
0.02894437865242835 
-0.01145635471780454 
0 
-0.001155066683135122 
-0.0181109462650467 
0.01147612635548028 
-0.06879275562248564 
-0.01670149841541197 
-0.01283168461191058 
-0.005507999023604608 
-0.0005421550623804622 
-0.07884841524730132 
0.02828045621748811 
-0.01887817907599083 
0.001996108082834458 
0 
0.0009856493403146865 
0.0318854346806996 
0 
0.002624835233915323 
-0.03266696233457053 
-0.02973231634552433 
0.0204723636873969 
-0.01125311114640462 
0.02910603454060792 
0 
-0.02453817349937641 
0.00677490676138187 
0.00199092293773472 
0.01051771270445746 
0.002787977716869671 
0.002329230650603894 
0.006377732769456718 
0.007233282665548365 
0.01629527444934959 
-0.01093163770837845 
-0.02629288448786179 
-0.003863846326800932 
-0.01826408583440618 
-0.0009562394024270398 
0.03194330949085307 
-0.02416062854717492 
0.005586508784988532 
0.006356784289216833 
0.0006234258365875674 
0.01646827057286641 
-0.02726635671885654 
0.004688585096659198 
0 
-0.01147543746920999 
0.001197820489503959 
0.002008543160374157 
-0.01599494665315562 
0 
-0.01275099995498279 
0.009629067802772378 
0 
0 
0.008091518406361216 
0.002600739918539562 
0.001459756941598354 
0.01432583243594326 
0 
-0.01738134249891805 
-0.005217268563694582 
-0.02923058142919612 
-0.02170941969813898 
0.007925251431311845 
0.01057416011828964 
-0.05411441853740149 
-0.005898707701353558 
-0.0143675370579958 
-0.002600569692147104 
-0.01682690559140924 
0.004118982666978868 
-0.0005717129269427962 
0.001335683997021738 
-0.02202470952312104 
-0.009808828040931937 
0 
0.004518837371219138 
-0.005841343200016124 
0.01351711935090577 
-0.03934609112672011 
0.01731361372162972 
0 
0.02353444869647218 
0.001940005341213548 
0.003723531364132726 
0.0129377085682051 
-0.00590586501505337 
0.0006657284982242029 
-0.01146421400700387 
0.009431535007903098 
0.009189850531460925 
0.03604916701363384 
-0.0224777637810476 
-0.004991948235644285 
-0.001448146177369471 
0.001987384625240566 
0.001131096817957815 
0.0003468336655165674 
0.0003468336655165674 
0.0006867122767364724 
0 
0.01740174461757878 
-0.02644437856106057 
0.008976435888225193 
-0.003336833198681815 
0 
0 
0.0009654125569959738 
0.001167238243598706 
-0.009352285555661304 
-0.007134132339536955 
-0.01595259087453256 
2.608861477543245e-19 
0.004207085062359969 
-0.02703095078719718 
0.01321113617305442 
-0.01003345280416747 
0.001216186956857533 
0.0006813844030420495 
0 
0.001899502136242762 
-0.03745872788658275 
0.0001967977222766522 
-0.006456601474228224 
-0.0004463280514621863 
-0.0001331210994272396 
0.0006927273154724651 
-3.152273982249033e-05 
0.001545429917583726 
0.005813667600618641 
0.01732204118850842 
-0.01003061546539733 
-0.001636590045509872 
-0.001364848116064973 
-0.01497641022606655 
-4.845028458294598e-19 
0.00329777192639417 
0.005350219006374717 
0.007692678047780331 
0.006026764962371527 
-4.845028458294598e-19 
-0.007916615401887161 
0.000560501665559168 
0 
0.005880463496697438 
0 
-0.004098637318401425 
-0.01792303289656138 
0.003082523745392192 
0.0110896764587204 
-0.003301892180436731 
-1.626303258728257e-19 
-0.02526210371855832 
-0.00725238440982984 
-0.01703410173430158 
-0.01812961302285574 
0.006095861556708293 
0.008064525769653981 
0.0636012352747385 
-0.0108102208869924 
0 
0.006969115738330238 
-0.001312229241966689 
-0.02643067948154525 
0.02288137948806297 
-0.005361808090030719 
-0.018041484230537 
0.01736264016149781 
0 
0.02245983021320627 
-5.421010862427522e-20 
0 
-0.006863509785551945 
-0.0003846719610756782 
-0.007831937325240906 
-0.02285068068725994 
0 
-0.002674473423409419 
3.523657060577889e-19 
0.01439490345242994 
0.02775991731220334 
0.002961360091366984 
0 
-0.001512792117628642 
0.002651748414285206 
0 
0.01140162907906833 
0.0002619208814825361 
-0.002146995194022807 
0.0004874331836151631 
0.005031731100307322 
-0.007152155242947961 
0.02068853557077171 
0.07210454926822665 
-0.001502970783441585 
0.0004065228744054324 
-0.001263328258821657 
-0.0003884072912276971 
-0.006282207984833517 
0 
-0.0005330755907419115 
-0.01034691662085952 
-0.003048787048191297 
0 
0.003237627322464983 
0 
0 
-0.002443349764480714 
-0.04013533700362735 
-0.01255710548028396 
-0.007396419238968686 
-0.01514706464477778 
-0.002467715742136834 
0 
0 
0.003619875641021951 
-0.05133638676319002 
0.001023089397061769 
-0.04801688764789389 
0 
0.0003172467554796586 
0.01110081474678262 
0.02916970807768042 
0.001232256383436489 
0.05271146425907947 
-0.02412275775723934 
0.002336583593772282 
-0.005966871202531159 
0 
0 
-0.02359849310997564 
0 
-0.008425869962424868 
-0.004633182229515088 
-0.006969535156937953 
-0.00914936251958455 
-0.03442042824483808 
-0.0177728524728607 
0.02204847711975484 
0 
0.02261812663166506 
0.01871898069653526 
0.003076202286814731 
-0.004593845435243452 
0.01272741804920456 
0.00632463658216246 
0.06805371822026304 
0.00449534513580926 
-0.01221321082292584 
-0.0007560609174911429 
-0.001467249255266928 
0 
0.01241032013134386 
-0.001711286412169593 
-0.02275183560499297 
-0.04905850026515628 
-0.01529877237693486 
0.001188253600230782 
-0.0006000320772114008 
0.04197369307480864 
0 
0.008414406814642042 
0.01316167476075911 
0.008922028042569469 
-8.756003182745183e-05 
-0.01088473923599102 
0.01946596838493903 
-0.08247459484524738 
0.002104335940630275 
0.002395881032626793 
-0.02442956382806616 
0.02094887731671311 
0.007257276897254893 
-0.0002838867317583585 
-0.006525363427000309 
0 
0.005909007821434422 
-0.006196830097800522 
-0.003409730603628099 
0.0001624648587645864 
0.01550685297615454 
0.004342083629381971 
0.0004349482913074123 
-0.001126372238121259 
0.02546076661415137 
-0.02097071041799018 
0.004787894730067302 
0.001428434258639995 
-0.005005970183727429 
5.421010862427522e-20 
-0.01310802559925716 
0.03368520638257933 
0.03082949828676894 
-0.03477054582996131 
-0.009241661606222222 
0.002315746134681392 
-0.03101044595452049 
-0.003564703738877324 
0.001472410471049245 
0.02508201253355948 
-3.388791906768197e-06 
-0.005764809162343427 
0.01133645161410221 
0 
0.04167978083249998 
-0.001249749039596725 
0.003990065677374923 
0.001981177126705632 
-0.003279718074526145 
-0.004074196929729178 
-0.001744549197218149 
-0.00982998277184351 
-0.009160421618930716 
-0.01977349561850311 
-0.003153579608570516 
-0.009518631870157817 
0.005362741198531599 
0.003944908627259653 
-0.01264832150330228 
-0.01403308288403216 
0 
0 
0 
-0.001684947597217537 
-0.008709731281051177 
0 
0.01532651286946346 
-0.001605804145714306 
0.007165723929078787 
-0.01667647822846372 
0.03488465749217196 
0.03456107989970018 
-0.002758239282420742 
0.0003658149524888369 
0.01946282344225563 
0.01034326297762502 
0.01084797836259947 
0.0001262862712021328 
-0.03207651960088409 
0.001009689539877383 
0.008514332974686975 
-0.01327308085607024 
-0.02105138480406792 
-0.007191939374221312 
0.04080147594596227 
-0.008593203274954815 
0.001555174460181062 
-0.03588312010309002 
-0.006768886821222665 
-0.0008573635418621179 
-0.001049992583256464 
-0.0009562326691344488 
-0.01150216893707243 
-0.01708813670459746 
0.02370361560195485 
0.02243204878496417 
0.01528405557876586 
0.01962452359898007 
0.02055488295396611 
0.03078697746991891 
-0.005447201762948749 
0.006922834974272581 
0.008075271119107367 
0.01126878538093577 
-0.01211177737948627 
0.02678587701917091 
-0.03244465253367212 
0.003182330020996172 
0 
0 
-0.04962637211923589 
-0.03017971616775534 
-0.02092917566573024 
-0.01007897044255718 
0.0003538195672047769 
-0.02077082485420664 
-0.01926141773012333 
-0.0006579817099993347 
0.001716118537308487 
-0.008925472752552836 
0.01272273097588514 
-0.01656932399248947 
0.001772319990808195 
-0.01041169803133467 
-0.01311089784494048 
0.0003800770748879207 
0.003857919742513462 
0 
0.003294971533467052 
-0.01097772081369617 
0.00516675700627861 
0.001855733257136553 
-0.01682511054309 
-0.01310590630141759 
0.0286989892814395 
0.01868560143224073 
-0.02394108946323204 
0 
-0.0241921676418296 
0 
1.355252715606881e-20 
0.001124411884162049 
-0.008573174852402415 
-0.003350659623389413 
0.009160411701438775 
0.002047508634973465 
-0.003019087135266711 
-0.007020849961021676 
0.02634185677508564 
-0.0057236649475895 
-0.0226962356453126 
0.002633611140495872 
-0.0002838808343162681 
-0.003268484307784139 
-0.04127258807255756 
-5.421010862427522e-20 
0.001339638097840144 
-9.215718466126788e-19 
3.726944967918921e-20 
0.007952053005814639 
0.006883220002970592 
-0.004228725447657174 
0.04317144617593251 
0.008672000654431829 
0.01813026013091577 
0.0410354874774446 
0.0005065280662408646 
-0.0009428404032882148 
0 
-0.008519593179760667 
-0.002225594785363153 
0.01542386398950182 
0.007776736260360872 
-0.006732045997244361 
-0.00293680152483706 
1.807210961153491e-05 
0.01706802553264418 
0.02713408286541039 
-0.04148340416187103 
-0.004425247836505698 
-0.01471120484009236 
-0.002332877857086918 
-0.002439965171279062 
0.03859481843129619 
-0.01170380197111907 
0.004084771230702916 
-0.03330086406068283 
-0.004247015950836904 
0 
0.03668713998786301 
-0.002407872708269866 
0.003255017777908485 
-0.004783375241780451 
-0.0052703048530496 
-0.007974300805393769 
0.01137543016205376 
-0.03403907624800018 
0.006830321877165863 
0.005986793249129788 
-0.003359378799387909 
0 
0.09089879984344085 
0.01355558689073901 
-0.0230958475923309 
0.006068096115048387 
-0.008947952899749045 
-0.0303334274370307 
0.008968627692244456 
-0.01025531769256044 
0.00669132662387834 
0 
0.009970276623856014 
-0.01538372385157999 
-0.0106390735365166 
0 
-0.01106105371527034 
-0.03912976483345181 
0.01775830276539971 
0.01334444439486016 
0.01105354235133292 
0.000726026508657146 
-0.003002950274314152 
0.0008241336206594669 
-0.0007696782920844008 
0.005501711971118406 
-4.065758146820642e-20 
-5.153002917038458e-05 
-0.03395045938899836 
-0.02593473779751202 
-0.002480286546406815 
0.02420121544876185 
0 
-0.02241174895781631 
-0.006674810265800518 
0.04118957452678776 
-0.003022064968515609 
-0.01163626273722168 
-0.03862482870500995 
0.0005196370219351305 
-0.01153405841567978 
0.01460491018341541 
-0.02874968111997574 
0.02564963337945453 
0.000677404494880527 
-0.008770326913918183 
-0.006316693399376447 
0.03949203451247379 
0.01145882041380244 
0.001548816852054192 
0.006562097050333564 
0.007137929232570089 
-0.006200992095806455 
0.01220429558285982 
0.005757648113658462 
0.0005265109109402527 
0.01368278352737532 
-0.02390792920439119 
0.0007143917563132683 
0.0039543946004724 
-0.002409459645219036 
0.005535777646810427 
-0.004480320805581695 
-0.05035163833762012 
-0.006204134714173495 
-0.002262254483494429 
-0.001632472596978473 
-0.01591202769553117 
0.05773162510525639 
-0.005767801966800411 
-0.005888097389775389 
0.005845048060763759 
0.00940941173515656 
0.007806284508063652 
0.0004197706840680795 
0.03091510180802252 
-0.002425491244822253 
-0.007321737456514489 
-0.008559632630443641 
-0.02136226885070607 
0.007668152430333452 
0.005983279892351838 
-0.01025563150868924 
-0.004480320805581695 
-0.0006890346929433085 
-0.004480320805581695 
0.02352812698058699 
0.0051711617130964 
-0.00567578708711293 
-0.0184208693552915 
-0.009942812781538728 
0.0006759660395006817 
-0.004342315405087908 
-0.007484724891506337 
-0.004480320805581695 
-0.006048877940398201 
-0.01743533505084506 
-0.003081612819549541 
-0.003793216182663412 
-0.007342168287766361 
-0.009008401695274519 
-0.002528155395183324 
-0.00459208885483422 
-0.01593076226182774 
0.007697145564954042 
-0.006988338938540497 
0.02406995226468924 
-0.005337684347443816 
-0.004706448359786414 
-0.005675105418506642 
-0.002064069352222367 
0.00830626894848027 
0.01420531543380157 
-0.004480320805581695 
-0.0129689949400613 
-0.01975541873360832 
-0.00591079494757144 
-0.004480320805581695 
-0.004480320805581695 
0.009161703044932428 
-0.004480320805581695 
-0.001632672055954146 
-0.001042468082659795 
-0.008382532682596578 
-0.004480320805581695 
-0.004480320805581695 
-0.003148817076450115 
-0.007919433001120808 
-0.006332935926751784 
-0.003940317003042287 
-0.008703916094868966 
-0.01344096241674509 
0.01705577391494167 
-0.01128517529584562 
-0.009387277822371816 
-0.004567880837409144 
-0.0277095426602493 
-0.03524678213129932 
-0.02949904369519685 
-0.008960641611163391 
-0.01634849668786922 
-0.01874498505927395 
-0.002307560786698637 
-0.002654832038480403 
-0.003093770185038823 
-0.00565228215366595 
0.01408666931281638 
-0.01454281961616193 
0.04101391141433306 
-0.004480320805581695 
-0.004874384694438672 
-0.04895493229484905 
-0.004480320805581696 
-0.01553690485831217 
-0.002594689233947591 
-0.009221519754335904 
-0.02554264583845001 
-0.00592535886879783 
-0.03392717364939501 
-0.006941105678637015 
0.04711218043830651 
-0.006152053331837646 
-0.004480320805581695 
-0.02622877691569252 
-0.01148662352898787 
-0.01934566727264236 
-0.003605021300636045 
-0.008207367549651241 
0.01340085394994454 
0.00242695176021253 
0.009090896753149679 
-0.006421902672678509 
-0.0210598148285349 
0.0194260153746741 
0.01162922031985739 
0.01763300827066741 
-0.003652757463847677 
-0.006473567919480528 
-0.004498563521560087 
0.00499230286416121 
-0.03115727829270614 
-0.0137389359524258 
-0.007340652752383148 
-0.001349962463688529 
0.002227715439465338 
-0.007104294826122809 
-0.004480320805581695 
-0.04742698842733133 
-0.009211603616514949 
-0.006366234824344032 
-0.004480320805581695 
-0.004480320805581695 
-0.02235286105712721 
0.01587053447499442 
-0.004355270073591599 
-0.006213918555080987 
-0.01944042106309847 
-0.0149386005676501 
-0.0125363607248156 
0.01684965828798345 
-0.01416597131075065 
-0.004480320805581695 
0.03314937963654681 
-0.004480320805581695 
-0.0003111859436654038 
0.002613645230079448 
-0.02210154921831326 
-0.001882102504489711 
-0.01134166051550017 
-0.002015071677840844 
-0.003274155433136397 
-0.01590902895234319 
-0.001511777217630618 
-0.004480320805581695 
-0.004298368971837921 
-0.006480029984686207 
0.008177130624090154 
-0.0009580493797484812 
-0.03798016882021784 
0.01336226615721672 
-0.008711226306335204 
0.008570688501850268 
-0.0003625384071785592 
0.02036304408229773 
-0.01714702942125646 
0.003946954347859633 
-0.01226676783618592 
-0.07153733141517829 
-0.02663392133288474 
-0.009725458505318509 
-0.003480673398732069 
-0.00613381310401144 
0.004254697941217394 
0.005672800859062079 
0.004062289668008446 
-0.0009855840909917199 
-0.004124135987400411 
-0.009915700239353164 
0.00461613226346182 
-0.01664184994671595 
-0.001821257726425965 
0.0275934592612208 
-0.006290274368606211 
-0.02172405788816321 
-0.02479809013881538 
-0.005001145058335011 
-0.01199503111689774 
-0.002467178932915005 
-0.009638147097070905 
-0.003554860269165328 
0.00730144619713289 
-0.004480320805581695 
0.01435186102359738 
-0.0005105266500078689 
-0.004480320805581695 
-0.007710113544074952 
-0.007005753412331138 
-0.003688242316356919 
0.02213024750906509 
-0.00106505337206089 
-0.003817968945836395 
-0.01022160854478188 
0.01286246621508164 
0.02396621962716335 
-0.001749958332666376 
0.008881166417624629 
-0.004480320805581695 
-0.01464283113699285 
-0.008384401776169384 
0.007903607233855418 
-0.0205042379551795 
0.04360147706949177 
0.02546949772900785 
-0.002029072699396449 
0.001728648662158406 
-0.004607891497620003 
0.02302248848442713 
-0.005742851852899511 
-0.0176839223540392 
-0.001766926583330654 
0.01327709153114129 
-0.004042564658663315 
0.004008267679699168 
-0.002388792298430589 
0.007389093522340293 
0.03456217344871568 
0.007980246255613657 
0.03434808612031844 
-0.00818792083221192 
-0.003134191818402185 
-0.003281583732115517 
-0.00432845175681353 
-0.003281583732115517 
0.0108114172803033 
-0.003914681398963118 
-0.004108501949577991 
0.03925042840914382 
0.01236183629536386 
-0.00654508675775097 
0.005695848908862655 
0.01194311064888571 
-0.003281583732115517 
0.02012641108899663 
-0.03142998605488358 
0.003751478582107701 
-0.01286037405622482 
0.007461233603573009 
-0.01448298141616863 
-0.01398968706245167 
-0.0004083926522667676 
-0.008080384568457827 
-0.003281583732115517 
-0.009733012260052588 
-0.01622456614471363 
0.02889775366085718 
-0.004068329649707233 
-0.01534917474382511 
0.0008901150053354391 
-0.01856997706149823 
-0.0004083926522667677 
-0.003281583732115517 
0.006181943106132031 
0.01933440591223463 
0.02943007692931791 
0.0103197275681637 
0.001242809636171815 
-0.007979475427918018 
-0.001095856768989725 
-0.006634521308856273 
0.03560200175046774 
0.01844677914924145 
0.03586558882333699 
-0.001922934536771398 
0.01890311266375908 
-0.02102419063574084 
-0.0162247567049036 
0.04699103281517711 
0.001622451740207823 
-0.004635491491103563 
-0.004894231668621725 
-0.003281583732115518 
-0.003281583732115517 
-0.04243638026791473 
-0.01047103542854852 
-0.01776177532449276 
0.02469552914631738 
-0.0190160979011084 
-0.006719900265304403 
-0.006127761579704822 
-0.04605217993370739 
-0.004466335376156107 
0.001049456378524474 
-0.007390875918119226 
-0.01881998126267035 
-0.007491221445101787 
0.0004473780323069616 
0.01576511101567117 
-0.007799356741173909 
-0.002187404048674528 
-0.01936671026196061 
-0.00539063021242769 
-0.01010073378026268 
0.0121036991460562 
-0.006505766197096518 
-0.02155406808187654 
-0.004208855372781773 
-0.002989474231198379 
-0.008552500032938977 
0.004098137893046066 
0.003514783989285804 
-0.01170351712368181 
-0.02278786547491437 
0.0170054858948823 
-0.02671795318787152 
0.001767024112626392 
-0.003060152608083844 
-0.01317568282733853 
0.01470707935768487 
0.004560493996346752 
0.01018500555256631 
0.01968032937860882 
-0.003648480364999644 
-0.01891465743476395 
-0.004075955406407481 
-0.003281583732115517 
-0.009629510148660926 
-0.003281583732115517 
0.003579698279900992 
-0.01605152160015515 
-0.002417305841679226 
-0.007999203009958971 
-4.149498997830329e-05 
-0.005984936519601173 
0.005600401960108532 
-0.002819802413854066 
0.02990040423405731 
-0.005905726132756852 
0.01990875104768514 
-0.006524948686721753 
0.003594976725933674 
-0.01121311631821496 
-0.08688237381996257 
0.01383544435640559 
-0.008652770310471958 
0.002515681200760573 
-0.02260610289927169 
-0.01100945737130916 
-0.003281583732115517 
-0.003281583732115517 
0.004527510075015811 
-0.008030858332393254 
-0.00397674506712382 
0.01852127269815664 
0.01264104802600149 
-0.05833373905227594 
0.01795660496054841 
-0.01870003298706418 
-0.01361622835895209 
-0.007074357037052188 
0.01085153927192772 
-0.02344358243264788 
-0.003185319547504206 
-0.00251649346547529 
-0.001198920864285789 
-0.002407872708269866 
-0.002407872708269866 
-0.004815745416539731 
-0.002407872708269866 
0.005924328430357534 
-0.04673121228477045 
0.001538259141103381 
0.004303333852395457 
-0.03806183304989159 
0.001060984857413093 
-0.01064113405020794 
-0.02193106089906182 
0.008803460476350642 
-0.04328815171710285 
0.01154577780389659 
0.0222327937460816 
-0.002407872708269866 
-0.003078031389114025 
-0.003486315809385879 
-0.03087093369216204 
-0.002466441966856517 
-0.004384058612412704 
-0.03606198174677649 
-0.002856332760586868 
-0.006033330284794251 
-0.02587148307948447 
0.001193921734518108 
0.001193921734518108 
0.02784551071115417 
0.009270526207344254 
0.006917225776668824 
-0.007332238882015017 
-0.001358448862500566 
0.05609067743911696 
-0.01011727059458872 
-0.007341495023518108 
-0.03806803941874873 
-0.02903949405062906 
-0.006869803762870795 
-0.01391017422033569 
0.00704859004715263 
-0.001333480825256346 
-0.004888159254676679 
0.01123259152185127 
0.003555956311348345 
-0.011315166996578 
-0.002407872708269866 
-0.005992959047624639 
-0.004888159254676679 
-0.005628756620185522 
-0.002407872708269866 
0.005799366049375015 
-0.002407872708269866 
0.01208249411264255 
-0.002034761157755041 
-0.002444079627338341 
0.009312666579218377 
-0.009042247891943146 
-0.002407872708269866 
-0.002407872708269866 
0.01470927520073146 
0.002533782513970515 
-0.01853767326526941 
-0.01054190151589018 
-0.001581932556546186 
-0.005873875070268305 
-0.002407872708269866 
-0.01734767289637942 
-0.004646220804248107 
-0.002407872708269866 
-0.001920820322964903 
-0.002407872708269866 
-0.002407872708269866 
-0.0002677220681058429 
0.06312710862122443 
0.0325054512448273 
-0.002407872708269866 
-0.007372259110014854 
-0.001637540715907065 
-0.01477183147331553 
-0.007599396525745744 
-0.004113370365738273 
-0.007637196054739426 
-0.007560180283385866 
0.003592071417288822 
0.006076947759196051 
-0.01533529410974128 
-0.006992764631297119 
0.02239853137443842 
0.03365297300413865 
0.01761339973585937 
0.003079612156125481 
0.001220270281052666 
-0.004027030838296027 
-0.02659344304254902 
-0.002407872708269866 
-0.003741562617205167 
0.03453189040858765 
-0.006392170764124044 
-0.002407872708269866 
-0.0009583955139552207 
0.03450939788477518 
-0.002407872708269865 
-0.004239216147679283 
-0.003404369602279362 
-0.002712823436682121 
-0.002351067273793959 
-0.01597872679791376 
-0.002407872708269866 
-0.0006009645099735623 
-0.02662993334545937 
-0.002407872708269866 
-0.002407872708269866 
0.006769619800780515 
-0.002407872708269866 
-0.002407872708269866 
-0.003572469722338058 
-0.002796214107484782 
-0.002407872708269866 
0.004625953111746482 
-0.007842905709351523 
-0.008058511342770407 
-0.000452255108409429 
-0.002480825513257471 
-0.0105645759186048 
0.005583930623395741 
0.002217518804062965 
-0.00266745708730825 
-0.0002261275542047138 
-0.002647210001218599 
-0.0002261275542047138 
-0.0002261275542047138 
0.0129276954555957 
-0.0002261275542047138 
0.007336604472804058 
0.004302762811298738 
0.01245528171065897 
-0.0002261275542047138 
0.01834906893498549 
-0.003823461154725501 
-0.0003483553973581034 
-0.02653437859206598 
-0.0356397027685878 
-0.007312309380658612 
-0.002285190944546295 
-0.009461535234156607 
-0.005112821957699892 
0.0002403640967092809 
-0.01155523728493097 
0.001774228092852542 
-0.002239831263812111 
-0.02593410625021773 
0.02927811448264365 
0.02447255399659942 
0.01538422649315321 
-0.004648615989158597 
0.01955916399771764 
-0.01150215580718945 
-0.01547356230876209 
-0.008872564288702686 
0.006666724281841546 
0.002254352314692484 
-0.002911191208151527 
0.02797625968499809 
-0.004679101392247808 
-0.0006686839465008129 
0.01972580201859157 
-0.001728375245870604 
-0.0005589658128925855 
-0.08852031471624289 
0.007405570732738826 
0.03220814435466334 
-0.001437704134207562 
0.0006558285107764446 
-0.121901330020197 
-0.001782595651956008 
0.007338312025107574 
0.04643626500101977 
0.02286635697572724 
-0.02092121652319132 
0.0007251833388608467 
0.02227253656320528 
-0.0002261275542047138 
-0.005954882577406288 
-0.0002261275542047138 
-0.003487455539006272 
-0.0002261275542047138 
-0.002736907830268803 
-0.01050533351740844 
0.001449593102251774 
-0.004616013409979653 
0.01442641508478763 
-0.01807576504193546 
-0.003806874127442271 
-0.0190800729251847 
0.01578813679707827 
-0.0014649436696379 
4.840902493689648e-05 
-0.001970265276783543 
0.02123911550160831 
-0.02869096134631146 
0.004222037948837575 
0.009994689920611203 
-0.009239525220460978 
-0.002493666994550222 
-0.003945475636895377 
0.0009781089333475777 
0.03281899916605758 
-0.03587998156125309 
0.003275507254055112 
-0.0246286473286097 
0.003026035698181239 
0.0005393772651798827 
0.01460346593787787 
0.01014855242241775 
-0.0006783826626141415 
-0.001728375245870605 
0.0609311212564313 
-0.002877593146242017 
-0.002159634494649525 
0.02746166086363314 
0.007459722330648239 
0.007842230256254053 
-0.1337116177086451 
-0.0002261275542047138 
0.0008615174842499545 
-0.0003954496739335245 
-0.0004522551084094277 
-0.0004556439003161953 
-0.02770794548925252 
-0.0002261275542047133 
0.01466801037397767 
-0.001153399194870969 
-0.002682707600626821 
0.003894598627350848 
0.007455459227196666 
-0.0002261275542047138 
0.01365928231809783 
0.02450630441753554 
0.01556426297065482 
-0.0451993233733369 
0.01577328349602657 
-0.0002261275542047138 
-0.001545168229130747 
-0.009882311636889005 
0.006304364804896807 
-0.001822542165732479 
0.0201243566338984 
-0.01347493457210242 
-0.0005699646327139783 
0.03599819324986269 
-0.02238433688050265 
-0.02069956347770159 
0.0004848874153910013 
-0.0002261275542047138 
0.002223329006071677 
-0.0002261275542047138 
-0.0002261275542047138 
0.005281788038427208 
-0.0002261275542047138 
-0.01452375906776219 
-0.0002261275542047138 
-0.0002261275542047138 
0.02779664563586767 
-0.02601087929625046 
-0.0002261275542047138 
-0.005466988498047388 
-0.02804388545415256 
-0.002553032077704269 
-0.02182424203146411 
-0.02241049990134709 
-0.0002261275542047138 
-0.001776503346690906 
-0.001157323004390723 
0.06915663793550715 
0.01985747536666471 
0.01285842500590065 
-0.00127612013746118 
0.01463599051558512 
-0.0002261275542047138 
0.01469605203520034 
0.02210307991552104 
0.008952506000953441 
-0.0001380881279171011 
0.003046561768352231 
-0.00183360584014305 
0.009307703431117096 
-0.0002261275542047138 
-0.07676482393674124 
-0.001454018341368656 
0.001494834618242379 
0.008226919409051436 
0.008690590387544729 
0.006785585297870227 
0.0003574245412717112 
0.01868551232540918 
-0.0002261275542047138 
-0.0002261275542047138 
-0.00127612013746118 
-0.001344238576407098 
-0.0002261275542047137 
0.03385000982685282 
-0.001206819193105348 
0.04671509819855943 
0.00948469773713399 
0.005004384269363948 
0 
-0.01223443961009119 
0.005635421918368126 
0.008168794052595497 
9.486769009248164e-20 
-0.002499371771078342 
0.00205830741608957 
-0.01774228554114791 
0 
0 
0.007625265767308807 
0.001006603913764606 
-0.008218462069941616 
-0.009191050321220749 
0 
-1.13841228110978e-18 
0.01316735371929634 
-0.007358487925436043 
-0.03253232912553738 
0.01243050319579166 
0 
0 
-0.01095214939005682 
0.002336550697922273 
-0.00212879596818945 
0.003713155327761768 
0 
0.001019795734258029 
0.03816167215882022 
0.01055075878858551 
0.01236957769104036 
-0.02223777058091576 
-0.001965182040007514 
0.002221562569062182 
-0.001525936161926973 
-0.007600597104218069 
-0.01689982944238923 
-0.01122238519340133 
-0.0002009283709734034 
0.0005675850339250594 
-0.02772863756113337 
0.0001733274097503711 
0.0007797635136957966 
0 
-0.0151115039255964 
0.03120559285615679 
0 
0.01282517423905507 
-0.03114953957488758 
-0.0004318553073005019 
0.001722249498297232 
-0.009022133646766415 
-0.00755949852295028 
0 
0 
0.002025348077356421 
-0.004510945731396496 
0.01806596606982793 
0.006771273790289203 
-0.007663569516468557 
0 
0.005166757006278611 
-0.001845646727405739 
-0.0008249010661048548 
0.008938968830699983 
-0.02331939112844221 
0.001706692185525004 
-0.02822213564414467 
-0.007601226333537003 
-0.005493807207215515 
-0.01059384951831821 
0 
-0.002048202574424638 
0.006173142035224011 
-0.0008556469610215412 
0.02152234255012751 
0.002268801090112147 
-0.002427188226936923 
-0.0007335377047771656 
-0.001045703790472478 
0.000148643638030591 
-0.000777970555919887 
-0.001152060798339182 
0.002500906620384556 
0.003150106194657768 
-0.02354983433851999 
-0.0123847989970888 
-0.0007510528625824406 
-0.005607359374000373 
-0.00990412271592939 
0 
-0.0258769106997641 
0.003317523650026996 
0 
0 
0 
-0.040510360219786 
0.0132470456769486 
0.04629155471405846 
-0.008628656867528686 
0.0002490214407912467 
-0.01385709360765433 
0.0008006542008990369 
-0.003519090762813433 
0.00179894807661025 
-1.355252715606881e-20 
0 
-0.001317903278961675 
0.0002363197445296207 
0.001675667919537199 
-0.007143895276467293 
0.007344644845439701 
0 
0.0170697195920792 
0.01487522651611785 
-0.004121187379034401 
0 
-0.006966545460677705 
-0.01425598417097366 
0.006727568526584766 
0 
0.002574550361222002 
0.00289595173616748 
0 
-0.006712144526444621 
-0.0007885736297020949 
0 
0.03069798347385193 
-0.00277892582861368 
0 
-0.04196707672188243 
-0.03279182508832997 
0.01684146249079597 
-0.001278929917690219 
-0.00703163326503697 
-1.01643953670516e-19 
0.003286458113205908 
-0.009500749834843008 
0 
-0.008809159186660396 
-0.002421412728916708 
-0.01504940305899579 
0.01962868838371917 
-0.052614752242465 
-0.01216615192322592 
0.003131006547867196 
0.005309623235882059 
0 
-0.02011203938425997 
0.004288279465336362 
0.005004109724887648 
0 
-0.002013377215125999 
0.008761154770291055 
0.008262201908211725 
0.01586536672479363 
-0.03216556966713999 
-0.003359848807982307 
0.0111423466651162 
0.001283698637633213 
0.02915431939492474 
-0.0009544395389319321 
0.0009157738577703409 
0.001163590002003436 
0.007600650799627691 
-0.02210690651895196 
0.01717858587553643 
0.00628051637990277 
0 
0.04336922261490438 
-0.005977967291167163 
0.003306585467358746 
-0.0009029457043228743 
-0.00308891826059095 
-0.004990433439162017 
-0.04226445328045568 
-0.02399211269444996 
0.001154104658704513 
0.0008345259183154133 
-0.01175938376480333 
0 
0 
-0.0280128223447389 
0.01049310531388471 
-1.694065894508601e-20 
-0.006263423570838847 
0.008534686256297592 
0.0219486937359475 
-0.001480674050966729 
8.131516293641283e-20 
-0.00207439577784261 
0.01811094416261066 
0.01460834306989869 
-0.001635696426401799 
0.005936961197734911 
-2.396580183980766e-05 
0.01046850189070887 
-0.003198908883197211 
0 
0.001453106826051464 
-0.01572807228337876 
-0.001821158577688448 
-0.008500863788558089 
-0.01063173449708618 
-0.0183604154223795 
4.48830616289695e-05 
-0.01269554765654726 
-0.008894299881258092 
0.001315905520629251 
0.02026443995568133 
0.03929538507171607 
-0.01613881999298482 
0.003871730782026616 
0.005933794252310432 
0 
0 
-0.01221328657730077 
0.006625930004805533 
0.0193550565972747 
0.001930663038813846 
-0.004712084638315656 
-0.04140070376905493 
0.00261573625210965 
-0.01132859251193887 
0.005008095396117177 
-0.001138391194857708 
0.02544717824840862 
-0.02953278938354905 
0.0007115409962403665 
-0.002429240335179289 
0.01178351958640206 
-0.003714053054371645 
0.002913915441196149 
-0.004798614869347764 
0.02374168055833545 
0.002690652238413588 
-0.03482557320952812 
-0.01538533026604569 
-0.006322512534198222 
-0.01035791188120708 
-0.0106810043754233 
0.009113088193234947 
-0.005189916487660402 
0.006869130819928843 
-0.004583592234765125 
-0.008921550058302547 
0 
-0.03010962795673599 
-0.0408766462725566 
0.01699589715898107 
0.004964968421522555 
0 
-0.007904004680214226 
-0.003360865916163968 
1.355252715606881e-20 
0.02152395218718332 
0.007917973219754158 
0.01444406223104404 
0.004408295443353632 
0.00036907502319536 
0.004005307945561911 
-0.004071480923471539 
-0.003572879194700598 
-5.153002917038462e-05 
0.001686049022051319 
-0.02897925775956778 
0.005404898348985744 
0.004444308522370453 
0.002393074194262738 
-2.168404344971009e-19 
0.008225883246258671 
-0.002216253224708895 
0.01483174422585625 
0.005586508784988532 
-0.001927664096320477 
-0.01670125923616556 
-0.01745483666980003 
-0.00269397973143783 
0.001660254551231187 
0.001215791257717433 
-0.02812977305133296 
0.00979644019583076 
-0.008723138301830604 
0.01578192645004189 
-4.18660770792051e-05 
-0.01631080254645819 
0.003623709872264258 
0 
-0.002029966280668564 
0.004617937862596969 
-0.01197241635861074 
-0.002881507312927361 
0.007179070263093693 
-0.0001585067738327534 
0 
-0.02490181820793293 
0 
0.0108939423950298 
0.02061700686345528 
0.00408264938858323 
-0.01141448278243831 
-0.002379117540257684 
0.01678944752985221 
-0.005405495931790428 
0.02918475576987621 
0.002749833760297527 
-0.00161113264342455 
0.01989313733122577 
0 
0 
0.005389772041444274 
-0.00638573949095815 
-0.005603053853557161 
0 
0.005261743512462147 
-0.0008789972879210075 
-0.004245255514527114 
-0.006618423785668102 
0 
-0.01749791022634443 
0 
0.01594302479662692 
-0.002017967538362432 
-0.005532509904665358 
0.007359351737494271 
0.02370866140892129 
0.0008102480541871771 
-0.01280611081742664 
-0.01153779374508759 
0.01729942171439553 
0.01097693943394284 
0.003834100823714051 
-0.0191842803445593 
0.0002684413312914928 
0.007921077382486708 
0.01601951942203555 
0.004971914939366246 
-0.003906981811235246 
-0.002528653357199331 
0.006697255040002435 
0.004563039105737243 
-0.01800579726664303 
-0.01299976548155279 
-0.01022086800566635 
0.00961381859306264 
-0.002001993687930318 
-0.003247808103144238 
0 
0.01964046436419035 
0.001259958082241684 
0.006820626911074065 
0.001489156414866494 
-0.01794594368722578 
0.007891900814328893 
0.004212339882422406 
0.001586161445482339 
0 
0 
0 
0.002820374051472717 
-0.008608408369971376 
-0.00343383019351116 
-0.004219622165292402 
-0.0228882332074575 
-4.525037746030055e-05 
-0.00559041917043232 
0.00352510640196336 
0.007521500992779896 
0.02890759896834415 
-0.001536880207298752 
-0.002763689202525691 
0.006112362151375905 
0 
0.00338766341650362 
8.131516293641283e-20 
0.006894725855930109 
0.01517952122359345 
0.03616058853092443 
-0.002287769373111149 
0.00343820469542334 
-0.01126944170690371 
0 
-0.01524695310681071 
-0.001685724019038877 
-0.01319383854609766 
0.001129811999159605 
-0.007209826503445971 
-0.00547961823647311 
0.003243066867240082 
-0.004978531623404142 
0.02971372459567097 
0.004810427503703486 
0.001989727198488923 
0.001235857922354357 
-0.005856622704169492 
-0.01608093092742921 
0.0206333153921065 
-0.003751254483093313 
0.0001659593063955566 
0.002723445082838265 
0.01594186648614103 
-8.289497200828993e-05 
-0.0001697988894337997 
0.05688310010460078 
-0.004711197802129881 
-0.0214977501357291 
0.00715945708521255 
0 
-0.01518776806883876 
-0.02507425619270751 
0.004618586074093801 
-0.05652628309439593 
-0.00215790773322569 
0.001499754486280182 
-0.007024429974702145 
-0.0124973590086084 
0.004785675798907345 
0.02791261356223849 
0.02079015295045255 
0.003624105409879438 
0.00884289572205189 
-0.003327115976483747 
-0.01016837150450662 
0.007535963501941662 
0.01193731191267917 
0.01105589544234991 
0.03032967632650407 
0.01491621221592286 
-0.005073608344349253 
-0.002529602830074295 
0.0003376276815163303 
-0.009032413944653074 
-0.01494410370609793 
0 
0 
-0.005834687527977127 
0.001538207313236332 
0.009371776910537024 
-0.0002989179165223766 
-0.01308573472308152 
0.0008246678661054997 
-0.0293770334521523 
0.01745583825743914 
0.002477380003384527 
-0.002965259535414786 
-0.00376724079567994 
-0.00567561902695799 
-0.00976098862813754 
0.002757213142664516 
-0.007381710965317484 
-0.004339099236373914 
-0.004859235144629027 
-0.001603790371068483 
0.007454548755747864 
0.01509523536048473 
0.01548593842081892 
0.01807126805130998 
-0.01273178841818482 
0.01528427971231097 
-0.001191733252773647 
0.01821073745641028 
-0.01544697357834584 
-0.008526128117141412 
-0.00446147986100814 
-0.01798528255339705 
0.01469718457416938 
0.02821637318219135 
0.002159536520496115 
0.003717292051100668 
-0.01042785125173393 
-0.02059145916102735 
-0.01283059792281968 
0.007231863825052786 
0.007640656718490004 
-0.01866777727114731 
0.0217529773511022 
0.008828996935621244 
0.00370466573825734 
-0.002973836791352705 
-0.002973836791352705 
-0.01786040990610583 
0.03551268363968037 
-0.01720554620609004 
-0.009883277925542409 
-0.0238147035771776 
0.004546067207585946 
-0.002767257891911473 
0.01778481675583005 
0.001340757663321859 
0.03316446997745576 
0.01314787260182846 
-0.0006324124916430804 
-0.0440517982279755 
-0.005198665993577403 
-0.008261948439238304 
-0.01090779425135343 
0.01014600032793988 
-0.01090779425135343 
0.009064398762753301 
0.00900462813099284 
0.004917392412207175 
0.003055001441146006 
0.01455798673745105 
-0.007834399209728149 
0.001286502279306646 
-0.0002209564868523416 
-0.005585275651716032 
-0.02750763021782576 
0.0005997068952965111 
-0.001529092157195251 
0.0072115969822846 
-0.003938409483803611 
-0.001835650942509912 
0 
-0.002183697805002066 
0.02499054273023479 
-0.01682492704161374 
-0.02052112147135808 
-0.005093976535500069 
-0.005072344370640013 
0.001008639275909198 
0 
0.001595379264403231 
0.0009951618599659915 
-0.009830129579962602 
-0.02237606258560071 
-0.006247323892413386 
-0.004913855369362254 
0.001163274075015291 
-0.008493670997743234 
-0.01736557176080316 
-0.001366241785020449 
-0.01645085233318701 
-0.004149849337104074 
-0.004209167002679132 
-0.005122225144118543 
-0.02038205726367951 
-0.003225705139252284 
-0.01244417914787547 
0.01311588140442428 
-0.000393150598987155 
-0.003483811466604262 
-0.007185696477559136 
-0.02300112352505185 
-0.00184924409661856 
4.620573000673095e-05 
-0.009308162440112145 
-0.05263279601201842 
0.01056887030399218 
0.002724227008453049 
-0.01171581220418326 
0.02893783999369326 
-0.005797864495181649 
0.0224861542282275 
-0.005626125529479857 
-0.008395478272176226 
0.009532110341369939 
0 
-0.0006334982830827855 
0 
-0.01636887019652219 
0.001845148174557627 
-0.0013903189937452 
-0.002645874835474928 
0.002583115119909948 
-0.02053205025370308 
0 
-0.01123619353062934 
-0.003111326890205072 
0 
-0.02538637213216094 
0.0213954739789958 
0.0001905206397544916 
-0.00886916237778526 
-0.003615136796145337 
0.01320309081239518 
-0.01547759399761298 
0.01523063310913218 
0.002567941390321023 
-0.005619221999654759 
0.002341376294308143 
-0.004076674595152039 
0.04327449328555697 
-0.001607478285938337 
0.04919220899101427 
0.01041492001391211 
0.02857139352906241 
-0.03056084642579068 
-0.01038271511196558 
0.004197373838815374 
-0.02861737972675816 
-0.007606800806502318 
0.001159117395604201 
0.0002488325289885647 
0.0033649732752103 
0 
0.01632660299362097 
0.00102368644214558 
0.007219052623998275 
0 
0 
-0.003000124666574753 
0.002226334384078261 
0.001334524496546646 
-0.006651389990882036 
0.01188780174938845 
0.001377250590214251 
2.439454888092385e-19 
0.000926287805916844 
-0.009912206759152274 
-0.01075056511535897 
-6.076168909714321e-05 
0.01065639002768002 
0 
0.0009398437992339517 
0.003221726236342777 
-0.01353200319873551 
-3.038084454857139e-05 
0.01532662252645532 
0.04520818246984695 
-0.004055053948322172 
0.02206989194520481 
0.0004191184783808288 
0.008074695162222312 
-0.007539695502266348 
-0.002422381499758885 
0.003109035723214059 
0.02894119979279911 
-0.007895314926823575 
0.01245489157831034 
0 
-0.0003180914899014603 
-0.008376885974445556 
-0.006905310478847044 
-0.01604852502453628 
-0.008824553410472696 
0 
0 
0 
-0.02092873808898882 
-0.01887331890474775 
0.0137870718876733 
0.001814087942581219 
-0.03926711322790868 
0.005586508784988531 
-0.003313455043043945 
-0.004876388709100197 
0.001556707123309143 
0.03292957553758973 
-0.01296718655882327 
-0.004436533700068944 
0.002577913552553386 
0 
0.003854732915729178 
-0.0009183330934925865 
0.001728389156589489 
-0.004902794149216409 
0 
0.01372346546240422 
-0.002770588456395042 
-0.01026259991269017 
-0.03019418903583203 
0.01073231503001059 
0.01199472227916522 
0.003083220799986456 
-0.0140021531266474 
-0.001849849867551648 
-0.009587823762569891 
0.005749487310504999 
-0.01171794513245583 
0.00159980612656802 
0.0006408841470698834 
0 
0 
-0.003417569102443228 
-0.007974597378379888 
0.02276351472995094 
-0.02100682541119113 
-0.01735803371102638 
0.002319456666182074 
0.01762213508420275 
-0.05431120127208351 
-0.02045702724536278 
4.163538440268318e-05 
0.001778369581938341 
-0.003364773129673372 
0.001753971566932573 
-0.01393873673693263 
-0.01380077906175146 
0.01661266521902196 
0.00416368396515834 
0.004260852224746125 
-0.01184166838279329 
-0.001113046438841495 
0.01428810379970692 
-0.005987867866399819 
-0.007218355209154174 
-0.00755936711458556 
0 
-0.0123869966745671 
0.002862809559029586 
-0.0237690760105588 
0 
-0.002419406964349022 
-0.0006402399930539748 
0.002378481053620765 
0 
0.0006678419985108691 
-0.002012378176508411 
-0.009449094249600717 
-7.769054499089694e-05 
-0.01590020646998393 
0 
0.01094452778651372 
-0.008266123827325949 
-0.02754613413199602 
-0.003033495344815281 
0.000712715245676561 
0.03689279116970905 
-0.005699980322996518 
0.03161793222626342 
-0.05206370592409317 
0 
-0.004882621959414619 
0.02470123442772001 
-0.006649397293989344 
0.0518303434813728 
0.001042656867547552 
0.02129434497666668 
-0.008288887028817348 
0.002025485128777676 
0.007998535963715041 
0.01060625730126622 
0.02431537802620804 
0.006910242814388549 
-0.01022942250795036 
-0.03425094256296608 
-0.01884410777728781 
-0.002682710623495111 
-0.00785669447308842 
0.004192819260570598 
0.008202940031277238 
0 
0.004963337172187166 
0.002246526834697736 
-0.02093661098530712 
-0.007041077335928741 
0.005480393408792925 
-0.03009691085094719 
0 
0.01766620032554321 
0.009646998419208854 
-0.001343522267223051 
-0.0321288122611893 
-0.002722966183548395 
0.002285293708535866 
-0.002048145858427524 
0.003694974391492148 
-0.01034168468180292 
-0.002427188226936923 
-0.001607478285938337 
-0.0007478861172232328 
0.004258275465470117 
0.001503970689956049 
0.01143486032809432 
-0.009264081746034696 
-0.01521355341903699 
0.01183512224583781 
-0.002220236492579756 
0.001013872800496161 
-0.001408199082444775 
-0.001408199082444776 
0.01956327549522904 
0.002716485138738896 
0.0008690060643731847 
0.01299602764883239 
0.00804646579770958 
-0.0125198446105525 
0.005384244494157385 
-0.01223819658376986 
0.01082210933226466 
-0.005127871517144722 
-0.009882361340769478 
0.002996083624964578 
0 
0.004247480468554084 
0.02392770888865647 
-0.02098940486414528 
0.003469730470883596 
0.004317627765686945 
0.0006589969177239815 
-0.002335983017139423 
0.01197769192043325 
0 
0.001171517081820766 
-0.002887650684911097 
0.004793493153956455 
2.699171441502832e-05 
-0.005586091177824503 
-0.01406064005973319 
0.0285918963776134 
-1.841302372604668e-07 
0.003469239339864629 
-0.004764205656180868 
0.006413094386866824 
0 
0.02017022815614522 
0.0004403360706804091 
0 
0 
0.008280194473247033 
-0.00944199345023107 
0.003709639433458794 
0.01639373872824987 
0 
0.0009838411447692368 
-0.01138597430304561 
0.0009996474068496315 
-0.0003233693379884984 
0.002342494304943802 
-0.001638637057954844 
0.02579430206450712 
-0.002427188226936923 
-0.009933707738711342 
-0.007186910785020848 
0.004221303461970552 
-0.006900570352628667 
0.008003634097527572 
-0.01130693613890425 
-0.02706918667155797 
0.004929136780241726 
-0.01017948640753885 
0.008527803515977166 
0.008592088319676694 
0.002756303774097033 
0.00468094350851363 
0.008111766803004157 
0.0269409143963072 
0.01642082715685405 
-0.01598059918379778 
0.006162487544592888 
0.002748709673594324 
0.003219942283950292 
0 
0.02587230142164287 
-0.003277992550882927 
0.005942286224583974 
0.03251458480472016 
-0.03038586767141909 
0.005308023223179841 
0 
0 
0.0007493292857062661 
-0.002843870104463163 
0.01153284222790311 
0.0008522008361373638 
-0.0006241613863342325 
-0.0008429260443382535 
0.003174319442726324 
-0.001694922404298185 
0.01329458886248292 
0.002899259754804348 
0.006870080048057554 
-0.001611801155259661 
0.01064599377230187 
-0.01529158357823899 
0 
-0.01095832484370791 
-0.009762180943453453 
-0.007232218528574538 
-0.002106190795794233 
0.0006310836150447834 
0.002008821814345891 
0.002112904997203393 
-0.007107847497884707 
-0.004590459448151646 
-0.000879828941078495 
-0.07134179841077769 
-0.02890437604398603 
0.0009472561978120664 
-0.02592848095147303 
-0.003482368373413983 
0.01525181272101576 
-0.01343515899919709 
0.02026515687965389 
0 
0.01426121384661353 
-0.004511264194491607 
0.006241837918693141 
0.0387196188304766 
-0.001932052570592431 
-0.003202776259972971 
0.02355708431580369 
-0.005462646865562583 
0.04332455889253427 
0.04407607188218761 
0.01969944341360433 
-0.003517521961359931 
-0.01682455780425191 
0.009141358373429862 
-0.004757827085169464 
-0.0293067636959877 
-0.04533469122323274 
-0.003859541421909397 
-0.00394329512304078 
-0.0004725097121728242 
-0.003993688606261538 
0.02816284105107639 
0.006912215096065168 
0.007405778160842776 
-0.0003038205622412586 
-7.571543324535053e-05 
0.02551009673988194 
-0.02463669746173641 
0.03032114022915125 
0.02367966931851646 
0.004492109797689157 
-0.01259408264765585 
8.788327004519007e-05 
0.03231130110636816 
-0.0008484399320896329 
-0.002109913506051917 
-0.01496469194398327 
-0.007999730701100579 
0.009044424399274905 
0.01348317905097314 
-0.001567686438749619 
-0.002147392170338258 
-0.0157975709847295 
-0.003000592352942177 
-0.01497776564417231 
0 
0.01957179614822525 
0.004175715752839109 
0.003846337766129256 
-0.001214480096578688 
-0.01194622345573449 
0.002612465695340716 
0.01157054805675092 
-0.02238442311985583 
-0.01928891275806721 
0.005622764266053086 
0.01471263803799627 
0.001951623913690298 
0.0002681596441279091 
-0.00493565493948407 
-0.006923046749455814 
0.006440236734930343 
0.001384306826583085 
-0.00187478595276401 
-0.02341116001894867 
-0.01419952397215031 
0.002530140756802757 
-0.000924703393757761 
-0.00187478595276401 
-0.002197705680784493 
0.02241938673538477 
0.006765219175848352 
-0.00187478595276401 
0.004643714353055514 
-0.00187478595276401 
0.001339407068342398 
-0.0002961948023696108 
0.006189419373485713 
-0.00187478595276401 
0.02651989190002022 
-0.00763842024939536 
-0.005870367880525895 
-0.000759390252964716 
-0.00173384075064269 
0.02983046626691558 
-0.01837293087615766 
-0.003752960697434786 
-0.002600570262516565 
-0.01146438238896224 
-0.00187478595276401 
-0.009072011699436416 
0.01622556388320926 
-0.003563563756979593 
-0.004296683936787351 
-0.0007812328703546824 
0.004579213544220523 
0.01831544592433515 
-0.002401117032893298 
0.001154840481390063 
0.003161939689507344 
-0.00752756804280286 
-0.01365197257555305 
0.02639326855960236 
-0.004875944143649282 
-0.00187478595276401 
0.01567969723192095 
-0.005015007202604652 
-0.00100522555212398 
0.0101156194646042 
-0.0009117550948673967 
-0.001054893628635131 
0.002992781418512549 
-0.0130997668529039 
-0.02443320592155126 
0.0003793697638620571 
-0.02786078680982662 
-0.00187478595276401 
0.005373620497066054 
0.01254492282860363 
-0.01221951584619069 
0.001701709467917009 
-0.001014576535907669 
-0.003940144423165786 
0.004129984534690472 
-0.004933472036560277 
-0.00187478595276401 
-0.002467028816647915 
0.0003549668502653781 
-0.004415236680828754 
-0.002450780410631401 
0.03468277426596438 
-0.001741042930214364 
-0.04201761592477612 
-0.007719470512885802 
-0.01643566850293246 
0.01756305322104863 
-0.003049803828905915 
-0.002662802249004898 
-0.002942664786184267 
-0.003053011446200241 
0.001464482812916632 
0.001826093322315891 
-0.0008390352307848645 
-0.00187478595276401 
0.01039639932997072 
-0.008739795278033067 
-0.006185956093318325 
-0.00187478595276401 
-0.0148763962470172 
0.004358733629285039 
-0.003647343937171731 
0.003156379478968224 
-0.00187478595276401 
-0.0116759579863292 
0.04943322406290872 
-0.0238903472185921 
-0.00187478595276401 
-0.009801084279128538 
-0.01844816375090238 
0.007224388765647342 
-0.005541086402626833 
-0.003273420105955827 
-0.007748483061359536 
0.005182604064234047 
-0.009222251961891307 
0.02941480941918039 
0.006600139805702966 
-0.01177187318315315 
0.05044445099269716 
0.01068355597713389 
8.599092166292782e-05 
-0.005303057117528197 
-0.002940937134247831 
0.004346710780936909 
-0.005730514665965832 
0.0003405201761740577 
-0.004113134048742259 
0.02213117879301234 
-0.004946723342872275 
-0.00187478595276401 
0.007859843981890961 
0.01318981317082949 
0.02491995405997879 
-0.00187478595276401 
0.006864982913671201 
-0.00187478595276401 
-0.00187478595276401 
-0.0169067277436974 
0.004842889915847573 
0.008940842484745847 
-0.00171950875485745 
-0.0006934879747978054 
-0.003584808872907968 
-0.008597543774287252 
-0.002508082384559547 
-0.00171950875485745 
0.0009174506278338429 
-0.01279744362499931 
-0.001722801213796106 
0.003985055918784249 
-0.009473736380802074 
0.0008883777360946708 
0.0006068380176079104 
0.008262107306801362 
-0.00171950875485745 
-0.009453017224122702 
0.0009305563625684399 
0.003632608083557214 
-0.00155789893982759 
0.002688089625198088 
-0.00275048897193587 
-0.00515852626457235 
-0.01749845681104258 
-0.004082402770915763 
-0.01203656128400216 
0.01046440930442163 
0.005799590322070738 
0.01905172459518423 
-0.005726786882826052 
0.0002922230346570746 
-0.00171950875485745 
-0.004269041740416563 
0.04445792991953704 
-0.008287567175942492 
0.006705171009987361 
-0.00171950875485745 
0.000549265237807834 
0.005508977699201854 
-0.00171950875485745 
0.002253483338485272 
-0.00171950875485745 
-0.003217586385683226 
0.001091798178653893 
-0.001719508754857451 
-0.008283647952480953 
-0.00171950875485745 
-0.02429819383895731 
-0.007111572857603466 
0.002210733474093491 
-0.01200103908348918 
0.0007730668553683272 
0.005144934399722049 
0.01742140755500329 
-0.01393698164722362 
-0.00171950875485745 
-0.00186297178687874 
0.01051917200841889 
0.007330913978999249 
-0.009479101640035315 
-0.00171950875485745 
0.0007948610862275255 
0.003701609853357629 
-0.00171950875485745 
0.002130125911249006 
-0.0113220905019319 
0.02032870647899972 
-0.004007061802936543 
0.01083393983939025 
-0.004146272705576688 
-0.00171950875485745 
-0.001083723771451484 
0.0008433265730556315 
-0.006684110629525551 
-0.00171950875485745 
0.009405190295557739 
0.001626174090825439 
0.005783901283699886 
0.009783445734926361 
-0.002283274483936717 
0.0003311329889320548 
-0.003242225268541552 
0.00512825312225973 
0.009747590145861218 
0.02005938539773306 
-0.00171950875485745 
-0.005740995278179092 
0.0005962373798239417 
-0.00171950875485745 
-0.0007523722442395395 
-0.01090631202662417 
-0.008574998356094488 
-0.0001918236794100438 
-0.004750753155633166 
0.006566116480593819 
-0.00171950875485745 
-0.002359626120269119 
-0.00171950875485745 
0.008216749021450571 
-0.02016105047038403 
0.001961379945128194 
-0.01978943817683036 
0.003383120112451963 
-0.0006910372226294047 
0.03074708228489927 
-0.00171950875485745 
0.004466788173796787 
-0.001565457682046197 
0.01124124996128487 
-0.00171950875485745 
-0.003327666016258978 
-0.006465489292738537 
-0.01110759057669001 
-0.0659649131990579 
-0.00171950875485745 
-0.001863261910769493 
0.01041130347496418 
-0.005649476911895021 
-0.01796448515423888 
-0.003776785521524661 
-0.00171950875485745 
-0.00171950875485745 
-0.02098918564654591 
-0.00171950875485745 
-0.006194663964510475 
-0.001101126920994511 
0.004227086375315867 
0.005314323540516706 
-0.001549770481905798 
0.01498171250287038 
0.0007992916892558625 
0.002698029179725831 
-0.002878031908598663 
0.004286311974585912 
-0.01416505057743801 
-0.0009701794691511842 
-0.00171950875485745 
-0.01704539885869361 
-0.00171950875485745 
0.006474185853084813 
0.0150953603602369 
-0.00171950875485745 
0.005145214166853464 
-0.00171950875485745 
-0.0004364542240572655 
-0.001261840801272896 
0.001665302021979932 
0.01242264752065862 
0.0105856206877084 
0.00999097566815341 
-0.00171950875485745 
-0.005397383930259216 
-0.006978093755021207 
-0.003465551779791307 
-0.003696209566624756 
-0.008831085949564456 
-0.00171950875485745 
-0.00171950875485745 
0.003195884986811239 
-0.0002345670883237525 
0.001836193895512724 
0.01942243466026342 
0.001996884592096774 
-0.00889181375933319 
0.007987725590406544 
0.004998639573638284 
-0.003266691679982532 
0.003212259463305838 
-0.002325411533107434 
-0.00171950875485745 
-0.0103693324719636 
-0.001053621438276643 
-0.01385338538572302 
-0.004161565361761136 
-0.00171950875485745 
-0.001341037729428418 
-0.00171950875485745 
-0.006750564874055409 
-0.00152207883244836 
0.0005173847916120407 
-0.00171950875485745 
0.05926917308845608 
-0.00171950875485745 
0.0006384561602101704 
-0.00273897955531679 
0.001662420833837768 
0.01016913730958495 
-0.0002923980728006528 
-0.004836965249568878 
-0.003640310146427839 
0.0005541486171246069 
0.005891134766490357 
-0.003026051383380473 
-0.0006556660150078709 
-0.006150488890890483 
-0.0006945829604477699 
0.001042176251898881 
0.004182166088810747 
-0.003804659030586636 
0.007542988077896083 
-0.005767073365306077 
-0.001896151382465156 
0.009459796613566537 
0.01416991530650273 
-0.003249066134268608 
-0.002640062016518446 
0.01014166927235689 
0.008975218305834795 
0.004091337866880738 
0.008331136686233861 
-0.0008035431251988882 
0.004678490205038398 
-0.002640062016518446 
-0.003208575489754585 
0.01337536380851759 
-0.00383332376077231 
0.0005355384093240241 
-0.01721732825863254 
0.002083973369687327 
-0.001731675314692485 
0.002130896108996781 
-0.03700223818500323 
0.01033480200019185 
-0.01138844917460283 
0.001320406198476451 
0.0302264391906176 
-0.002640062016518446 
-0.01908585988797469 
0.001353971210099385 
0.008925839332098777 
0.02110990219170474 
-0.0009037891227864664 
-0.03154780882044204 
-0.0103186055099082 
0.0003328819845432442 
-0.01273125211138199 
-0.004655338691994222 
-0.01900761482986689 
-0.02952022359508888 
0.0005873657428557298 
-0.00178297253805204 
-0.002217220205219496 
-0.01827172290322909 
-0.01110254577731672 
0.002643676052094346 
0.009241140347064363 
-0.002640062016518446 
0.02393514113560596 
-0.00280411261069646 
-0.00115847994398434 
-0.01042629184764571 
-0.001439755910718888 
-0.002640062016518446 
-0.0005264532825731014 
-0.005267180239972725 
-0.008902280975483443 
0.01082380315227285 
0.006175700837389398 
-0.00548244819354534 
0.002528398651249391 
-0.009413008948306713 
-0.0004265914635461104 
-0.002640062016518446 
-0.002640062016518446 
0.002779207109470038 
-0.01402857673337634 
-0.004357377019057895 
-0.004990161121366881 
-0.0112222304238811 
-0.002640062016518446 
0.03078520859254306 
0.02073997599796404 
0.01170043873725921 
0.009296409835249301 
-0.007194291280129629 
-0.03938879731119277 
-0.003163127232890038 
-0.003794987497170481 
-0.009771640750462038 
0.007317617553773693 
-0.002640062016518446 
0.001230795922154875 
-0.00207288621119141 
0.03259949988609807 
-0.01054636070592625 
0.007543557463280349 
-0.007935210125951104 
-0.0008573635418621174 
-0.0008573635418621177 
0.01634703143855844 
0.01110140443734424 
-0.03785160015357755 
0.004510313649383344 
-0.002557815767616557 
0.001688136450456761 
0.003366732435767291 
-0.00100216039450152 
-0.01717728445507495 
9.234877227847632e-05 
-0.02350314552679617 
-0.0008573635418621178 
-0.007083028932883366 
-0.0005366072648123043 
-0.008435019684060368 
-0.0008573635418621177 
-0.0008573635418621177 
0.0009934222322211775 
-0.02686830533812145 
-0.001085272348152253 
0.01937730409344172 
0.0008985827884623055 
-0.0008573635418621177 
-0.006432760788009664 
-0.002875331080224543 
-0.0008403348182236883 
-0.00751183806095162 
-0.02191947910792909 
0.004224204624195014 
0.008708558619390886 
-0.0003383150536550659 
0.001131697147918433 
-0.006526383602009286 
-0.01180081491671162 
-0.0108436875156472 
-0.0156570744678523 
0.007621003288673637 
-0.0003311788379300192 
-0.0008573635418621177 
0.0003879812579570454 
-0.004619139099762542 
-0.0008573635418621177 
-0.002111766698482363 
-0.006537026492929317 
-0.0008573635418621177 
-0.000914167074254335 
-0.0008573635418621177 
0.00285736942944568 
0.02979441942293853 
-0.0008573635418621177 
-0.008662010741421054 
-0.0004779604468626291 
-0.002033246724200057 
-0.001670042497524147 
-0.003700354772112404 
-0.001813688006417958 
-0.002347663147937028 
0.01022712120642147 
-0.01456355277419569 
-0.01689660390490655 
-9.49319817489324e-05 
-0.0008573635418621174 
0.04305660383044203 
-0.01607805341544391 
0.001167984535494305 
-0.00216132793312903 
-0.0002172890084474501 
0.0006278028588252539 
0.001647551788649439 
-0.0008573635418621177 
-0.0008573635418621177 
-0.002535815193027456 
0.003017568970818451 
0.01261428448140436 
-0.0008573635418621179 
0.01038163755343914 
-0.001925075973229869 
0.01834131610896391 
-0.0008573635418621177 
-0.008966985008388599 
-0.03147252382226952 
0.008212352358116983 
-0.00150260967157492 
-0.006271309202651638 
-0.005118338213595841 
0.01040543381614264 
-0.002748986276652894 
-0.0007244681021569901 
0.02060286279491985 
0.001246595651108985 
-0.001814382439579625 
0.002269249935528648 
0 
-0.005957325286279334 
-0.0217853999220851 
0.001130220351025443 
-0.007250426046217213 
-0.01082069818314534 
-0.003603536495039687 
-0.006259217728153358 
0.00377009366081492 
0.002184797665677624 
-0.001325042996633456 
0.008351750470971206 
0.01966959665784147 
-0.001565127562358158 
-0.01401364530846624 
-0.005600979719212296 
-0.0127246137651389 
0 
-0.001399349445309966 
-0.009396158559887218 
-0.01236553073429199 
0.01061555709578081 
0.01010810411909275 
-0.002415195324232698 
-0.01468395139705008 
0.01637230926532135 
-0.00142925981921342 
0.01126049946817512 
0.001526611420798643 
0.01335058483685451 
0 
0.006273173132700627 
0.01992247812382277 
0 
0 
0 
-0.002820612358366336 
0 
0.004621823003461581 
-0.00282000693505614 
0.01171643098837591 
-0.002340880782591008 
0.001108169033023115 
0.01506391006588239 
-0.006232368140797896 
0.002438843289083461 
-0.016672255624561 
0.0389471666344909 
0.000145677397721088 
-0.02086991931892211 
-0.01949747853169768 
0.005323220628301982 
0.00478078543539259 
0.007168849003545561 
0.005121187941875346 
0 
0 
4.065758146820642e-20 
-0.02332208208632094 
-0.003254441362890305 
0.001296403928140791 
-0.007524990442584147 
0.01385212134960033 
-0.007694701888338475 
0.04125863625279615 
0.01427733688016505 
-0.0006059027782499779 
0.003775316488987039 
0.003260977074236724 
-0.0006059027782499794 
0.001038260486223689 
-0.0003629572640530104 
-1.355252715606881e-20 
0.003361856263407566 
-0.002923717989541517 
0 
0 
0.003114872201657061 
0 
-0.00408760867664333 
0.02597846172842322 
-0.0007981865418842174 
0.03072945742253845 
-0.01269591391328344 
0.002806612032160889 
-0.0127218125786817 
-0.009305212463130073 
-0.02524136923992652 
-0.01305409400604671 
0.0001440988691814806 
0.02426756633652643 
0.0009856493403146865 
0.002913746154756751 
-0.006628297406776117 
-0.01470957394800485 
-0.001890264270069822 
-0.02397062412871521 
0.006290256954647164 
-0.004494866487025797 
0.01680273850260994 
-0.001432962476195074 
0.005707916497888136 
0 
0 
0 
-0.008889397808576841 
0.0001304389484748359 
-0.01179431944104167 
-0.01482921647670251 
-0.00330914024476804 
0 
0 
-0.0006130075065260648 
0 
-0.001605377219081652 
0.000488977989012105 
0.01841493819635177 
-0.004994655497696198 
0.04337701696628506 
-0.0195130459119414 
0.0004228418112989523 
-0.003842107684087543 
0 
0.003183861254611732 
0 
0.009546957720558158 
0.008898962271508506 
-0.02812259827602772 
-0.05761055293903518 
0.006532812817985522 
-0.0002073771792693798 
-0.01668036193980191 
0.002555543619964952 
0.009348550268257703 
-0.005421776010388223 
-0.01771863143145704 
-0.01571744939765992 
-0.003007651114502802 
0.0004472907901341668 
-0.0007961282753140952 
0.007663129106347128 
0.006394919934809548 
0.007720974371486574 
0 
-0.003957626848846328 
-0.008874222995463567 
-0.009966216997926353 
-0.0001869534697899154 
-0.002025237745963838 
-0.006444621664969344 
-0.002487827887910096 
0.01101867122941517 
-0.002645785191671772 
0.00515683267162575 
0.02067688877104436 
-0.005016640970674998 
-0.03365345104231839 
-0.002826430484609471 
-0.001979399514982992 
0.01374832458430243 
0.003163136497337317 
0.005129861238296165 
-6.776263578034403e-21 
0 
0.004950666715456005 
0.02167182242211424 
-0.00131994044207513 
-0.006956208250016718 
0 
0.002940694432144587 
0.009592820690273668 
0 
-0.01451612960190905 
-0.008519889860232166 
-0.0124075654569421 
-0.01315009252048896 
0.00348959299363308 
0.01391631703822871 
0.003214171177522207 
-0.02156469967660262 
-0.0001764583766650818 
0 
0 
0.0152094785310799 
0.002454317726610119 
-0.006142152229087536 
0.004170571537380349 
0.007783508101269125 
0.001270074286812584 
0 
-0.003305141581930597 
0.00503290962348658 
-2.710505431213761e-20 
-0.01157493414929057 
0.009300272017391968 
0.04209255132636591 
-0.005748136585789812 
0.03595684956066138 
0.003229640029554755 
0.01398576496576837 
-0.0006826493918606832 
0.006806856067745943 
0.01252803333967607 
0 
-0.007256895745065488 
0.001083757228633191 
0 
0.0007632646168459927 
0 
-0.01282990948994321 
0.0002566141687974889 
-0.001430765372919418 
-4.743384504624082e-20 
-0.00484241433247041 
-0.0009668496466783499 
0 
0.008162943107167326 
0.005700496050994069 
-0.008905677604595551 
-0.01041639059905912 
-0.006088803253444538 
-0.0009009577246350037 
-0.02643021655472172 
-0.001605377219081652 
-0.006776968730619986 
0.0007656430708237284 
-0.002858311916682347 
0.0005700049667308851 
-0.004934788126001712 
-0.008289997582506653 
0.0002368802011107683 
0.005496788131606369 
-0.007922085167315136 
-0.005384861254214043 
0.009589981216975647 
-0.001605377219081652 
-0.001605377219081652 
-0.001304308448315834 
0.01012763198570444 
0.001882114406217387 
-0.007941700906277089 
-0.001605377219081652 
-0.03682356030623404 
-0.002787136592422077 
-0.001605377219081651 
-0.005642302986609395 
-0.001605377219081652 
-0.004381255544160838 
-0.001605377219081652 
-0.007803784357156096 
-0.02094279352747269 
-0.003623344757444083 
-0.001605377219081652 
-0.003210754438163304 
-0.001605377219081652 
-0.01691701462456507 
-0.004739548252836018 
-0.007910615013519312 
-0.001605377219081652 
-3.75766511205604e-05 
-0.001605377219081652 
0.006669446068573682 
-0.01866931596338086 
-0.0002738734899500692 
-0.01316239797953089 
-0.004390969136076648 
-0.001605377219081652 
0.006032891568759862 
-0.001605377219081652 
-0.004347610756692401 
0.02146661124058524 
0.003437040596582393 
0.00144070282595001 
-0.005382013449722936 
-0.004339311598344269 
-0.00295483282762691 
-0.003210754438163304 
-0.006762109635713317 
0.01399911035272284 
0.00241152308658772 
0.0009582077248418415 
-0.004704109664716402 
-0.01102727406014729 
-0.006749790504438638 
-0.004142105083356479 
-0.007913147605614304 
-0.001876543586769936 
0.0001339506479324762 
0.001914958716067282 
0.003012731104113105 
-0.00287255791226753 
-0.001739814788761397 
-0.001605377219081652 
-0.001605377219081652 
-0.008164548405500509 
-0.039775190334575 
-0.001605377219081652 
-0.001605377219081652 
0.007217887663941957 
-0.001605377219081652 
-0.02420519885569674 
0.001970713541787171 
0.004330530277242855 
0.004806655298618229 
-0.001216763767043027 
-0.001605377219081652 
-0.001605377219081652 
-0.01164045353058747 
0.01289901025126532 
0.0003325750843238892 
-0.001605377219081652 
-0.001605377219081652 
-0.001605377219081652 
-0.001605377219081652 
-0.00337065420260753 
-0.001605377219081652 
0.01408594800663435 
0.006403523214579748 
-0.002684913472311288 
0.02716412344696145 
-0.001605377219081652 
-0.001605377219081652 
0.01254290525152692 
-0.001605377219081652 
0.002247590711421187 
-0.0001477781001156664 
0.02455969151175817 
0.003541381083057348 
-0.00295871209330645 
-0.001605377219081652 
0.0008057035958452731 
-0.01699703281489963 
-0.003553684724248363 
0.008076535173686089 
-0.007624196748882547 
0.002296646907665784 
0 
0.01101022589893814 
-0.005463685468394159 
0.01872768547750203 
-0.002740114559804261 
-0.03341827963249401 
-0.001232552576963386 
-0.001272080672450148 
0 
-8.074056490547426e-05 
-0.0002043011995734543 
-0.008026309180252733 
-0.007541387965941255 
0.006082737164335453 
0.001390189981569437 
0.02427805883803371 
-0.001791362677999025 
0.002043189055624118 
0.004949738083701532 
4.065758146820642e-20 
0 
0.006372614727661399 
-0.04013150884083029 
-0.0002611932633809527 
-0.001440579734401989 
0.01337879717414444 
0.0126707915381295 
0 
-8.074056490547383e-05 
-0.0103377525264797 
0.00314231639735732 
0.008798826854645895 
0.004998917046211806 
0 
-0.0002816734566505855 
-0.004206147224576982 
0.006111088215286753 
0 
-0.00327153950765643 
0 
-0.007689611238176237 
-0.0003675059107177572 
0.0003585067159562355 
-0.009840010225106811 
-0.02185962606170909 
0.02826854705700429 
0.005103149234289927 
0.00319579275188101 
-0.00222846509404581 
-0.002238777285358674 
0.002958121048191603 
0.0001991347416935329 
0.01493385850918738 
-0.003177855422858093 
-0.03015299713729389 
-0.00654014335078231 
0.01005238618571774 
-0.007572230619679202 
-0.04086810103325508 
0.0005121998322908326 
0.001456758959940959 
-0.003811982561840849 
-0.002210459402180114 
-0.005484234451477057 
0 
0.001818501515762989 
0.01035902275959005 
0.005644689649790511 
0.02949598052541888 
-0.002553976530754125 
-0.00833757974770937 
0.01430185472644146 
-0.02552898601643309 
0.004437379117871247 
-0.005679047218631915 
0.005647850236691198 
-0.007663912668692674 
0.01758660201616197 
0.00345362545902562 
0.02396715413048977 
0.01481056010588682 
-5.421010862427522e-20 
0.005231311340620372 
0.01633684730689501 
0.008540430695929054 
-0.007163734608465935 
-0.006349402910390216 
0.002241115901604338 
0.02044675153673422 
-0.002899127311652388 
-0.002133534446578101 
-0.001928728080466584 
0.01896639469222084 
-0.01273330962368928 
-0.01654979939389872 
-0.01173883801999378 
-0.009182873610629371 
0.006707978843401802 
0.002428984546870235 
0.002762238743348463 
-0.007596774169934633 
-0.01416504100271364 
-0.009921508071006153 
0.01110547535377542 
-0.002378068349042498 
-0.0005248985441112002 
-0.01564447960851241 
-0.0004775658188667701 
0.008154857659190953 
0.004761296902460546 
0.03064831690373974 
-0.002496755390633588 
0.003716244621217573 
-0.003166803215816884 
-0.001800845336720227 
0.00908670715286625 
0.02630879710886069 
0.001059862537578613 
0.03967541416014971 
-0.004180682795341777 
0.0129232498965243 
0.02619972077953123 
-0.0001442412652783847 
-0.02669718509100326 
-0.0001442412652783847 
0.0005964642400278427 
-0.005925764183985167 
0.008096811513157434 
-0.009864189471784243 
-0.0001442412652783847 
-0.0002884825305567695 
-0.003243735704106855 
-0.008845223088259923 
-0.0001442412652783847 
0.006911096083005291 
-0.002953192258208876 
-0.0001442412652783847 
0.004171860005431898 
-0.0001442412652783847 
-0.0001442412652783847 
0.0005015270557020997 
0.06533368721266419 
-0.004162177517648824 
-0.00112491995972483 
0.01988940759056005 
-0.0001442412652783848 
-0.004559725449098734 
-0.0001442412652783847 
-0.0001442412652783847 
-0.008732792798982623 
-0.01034502233473659 
0.0004306945788396823 
0.01706500043480602 
0.01344223791065995 
-0.0001442412652783848 
0.004021026984144175 
0.001097275887830422 
-0.001682341594623143 
0.01104135823669864 
0.005117242341152427 
0.01902289322866889 
0.0004707264158762569 
-0.001538100329344761 
-0.01215926942044997 
-0.01544119694360333 
-0.01974461591446796 
-0.001538100329344761 
-0.01997748513858415 
-0.0001442412652783847 
0.004756281232491325 
-0.0001442412652783847 
-0.0002884825305567695 
-0.0001442412652783847 
-0.01179945551493923 
-0.01819589899063871 
0.003407861602299609 
0.0005994854124132471 
0.008018497820980609 
-0.0001442412652783849 
0.003109557353444794 
-0.01199954329083923 
-0.003614344925085711 
-0.0001442412652783847 
-0.001118710799961095 
0.001527478883269975 
-0.01603648194842962 
0.00814317148650332 
-0.0001442412652783847 
-0.02902896295653309 
-0.006844857937394937 
-0.00290135877501429 
-0.0001442412652783847 
-0.004157064680648566 
0.00174899458386459 
0.004479415011909203 
0.002082093118799879 
0.0005689191177138131 
-0.001682341594623143 
-0.0001442412652783847 
-0.0001442412652783847 
0.005951071603500654 
-0.0001442412652783847 
-0.000285148513923886 
-0.0001442412652783847 
0.001952677081481444 
0.007390336815365712 
0.003129424178162271 
-0.01642072619840456 
-0.0001442412652783846 
-0.00433585371604569 
-0.007438753406817457 
-0.0001442412652783847 
0.002241285087263671 
-0.04293408818114482 
-0.01979215688648915 
0.01087311010629369 
0.08781288058189465 
-0.0001442412652783847 
-0.007198295929151247 
-0.0001442412652783847 
-0.004065749612957602 
0.003113590376430579 
-0.0006736331481160304 
-0.003369567443711579 
-0.0005635247714800178 
